tree
version=v4
num_class=1
num_tree_per_iteration=1
label_index=0
max_feature_idx=7
objective=regression
feature_names=Column_0 Column_1 Column_2 Column_3 Column_4 Column_5 Column_6 Column_7
feature_infos=[0.0003899811:12.7920880057] [7.9913999999999994e-06:2.1747205138000001] [0.00021381429999999999:11.181532175199999] [0.0012674384:23.011707588499998] [0.018258256399999999:23.549750036199999] [0.00038947519999999998:56.248133871299999] [0.14695505649999999:48.753345389700002] [0.24089002870000001:339.32357529709998]
tree_sizes=2795 2840 2845 2858 2816 2871 2865 2830 2842 2858 2839 2806 2848 2857 2866 2908 2812 2814 2781 2804 2828 2872 2762 2781 2794 2914 2831 2863 2843 2850 2797 2864 2836 2865 2848 2793 2864 2923 2783 2874 2805 2791 2803 2841 2796 2862 2834 2826 2860 2773 2809 2800 2810 2877 2738 2778 2857 2761 2855 2738 2758 2735 2754 2779 2741 2707 2763 2684 2743 2703 2759 2724 2672 2643 2721 2724 2662 2633 2680 2620 2734 2689 2640 2713 2763 2612 2618 2633 2623 2615 2612 2732 2670 2607 2593 2707 2672 2621 2595 2678 2655 2623 2647 2698 2652 2710 2650 2722 2633 2630 2460 2622 2569 2553 2650 2575 2596 2670 2513 2572 2532 2624 2676 2592 2656 2623 2593 2649 2546 2504 2623 2673 2562 2633 2548 2556 2588 2646 2706 2530 2575 2510 2497 2642 2586 2575 2727 2583 2497 2559 2598 2576 2580 2664 2552 2630 2571 2688 2594 2572 2584 2540 2574 2553 2668 2660 2634 2525 2577 2587 2668 2560 2550 2556 2664 2566 2638 2540 2561 2625 2506 2526 2628 2532 2601 2478 2617 2565 2626 2579 2553 2581 2575 2480 2504 2600 2518 2528 2601 2581 2630 2591 2566 2577 2522 2629 2586 2600 2551 2536 2553 2532 2601 2635 2530 2507 2599 2557 2524 2588 2576 2517 2663 2554 2561 2557 2556 2559 2547 2529 2515 2570 2539 2523 2556 2516 2577 2643 2559 2469 2588 2594 2560 2545 2569 2547 2549 2487 2549 2574 2511 2507 2498 2590 2528 2551 2454 2650 2551 2602 2569 2557 2524 2535 2545 2553 2501 2470 2506 2621 2505 2606 2468 2546 2531 2564 2518 2534 2513 2503 2640 2513 2590 2552 2511 2508 2504 2546 2524 2585 2478 2495 2543 2477 2519 2511 2500 2585 2557 2472 2544 2466 2519 2502 2538 2475 2529 2562 2478 2547 2543 2518 2511 2477 2513 2515 2565 2523 2520 2515 2448 2458 2520 2575 2524 2494 2514 2560 2475 2490 2528 2521 2589 2590 2529 2498 2527 2477 2525 2589 2538 2545 2505 2556 2560 2574 2488 2512 2518 2549 2535 2559 2472 2520 2459 2502 2564 2478 2559 2545 2589 2505 2502 2498 2482 2490 2544 2505 2512 2503 2536 2409 2544 2484 2512 2599 2482 2538 2523 2572 2491 2464 2506 2533 2468 2477 2490 2544 2509 2529 2548 2510 2491 2500 2467 2511 2488 2473 2513 2539 2530 2557 2510 2542 2547 2573 2465 2625 2491 2481 2507 2587 2519 2530 2544 2481 2609 2511 2502 2510 2526 2493 2502 2548 2510 2487 2545 2505 2451 2579 2482 2506 2502 2481 2519 2474 2505 2534 2483 2468 2520 2596 2522 2544 2478 2588 2546 2533 2468 2538 2598 2544 2464 2488 2572 2491 2507 2537 2524 2480 2521 2503 2543 2525 2492 2566 2568 2536 2522 2517 2531 2455 2502 2507 2548 2560 2537 2578 2514 2524 2538 2501 2489 2493 2538 2481 2537 2454 2507 2537 2596 2515 2563 2438 2507 2443 2514 2485 2521 2572 2475 2484 2545 2497 2591 2511 2506 2544 2539 2512 2525 2035 2501 2499 2616 2539 2480 2535 2534 2494 2481 2497 2489 2507 2455 2458 2513 2525 2516 2493 2482 2584 2564 2511 2479 2519 2601 2504 2460 2573 2506 2540 2485 2485 2473 2516 2489 2523 2518 2492 2511 2494 2515 2569 2498 2560 2472 2487 2494 2495 2516 2563 2534 2514 2520 2524 2540 2508 2480 2484 2518 2530 2571 2524 2454 2539 2507 2466 2494 2295 2482 2486 2489 2494 2480 2487 2474 2475 2523 2539 2467 2527 2543 2512 2465 2476 2476 2489 2479 2524 2571 2518 2508 2461 2488 2519 2523 2528 2573 2487 2524 2511 2498 2490 2494 2530 2518 2509 2530 2489 2490 2545 2537 2544 1973 2026 2011 2307 2546 2310 2511 2501 2498 2530 2484 2572 2513 2206 1006 2513 2544 2500 2456 2520 2541 1202 2125 2354 2499 2537 2509 2508 2558 2471 2530 2130 2553 2590 2517 1226 1220 1222

Tree=0
num_leaves=31
num_cat=0
split_feature=3 7 3 3 0 2 7 3 0 3 3 3 4 3 0 7 0 0 4 0 2 7 3 3 3 2 3 3 3 0
split_gain=209.207 64.4783 53.041 40.0651 21.3853 18.4471 17.7275 14.6278 14.0435 12.5382 11.9056 11.022 9.34489 9.2831 8.33242 4.99415 4.92063 4.11562 3.03284 2.50121 2.39973 2.38212 2.35863 2.2881 1.87226 1.84351 1.70415 1.60402 1.45723 1.43969
threshold=1.4329363309000003 30.248315023450001 3.6065347773500007 0.36056801355000007 1.3269528900000003 0.70188109090000006 10.993863092450001 5.7120315226500002 0.20565019710000002 2.1588536276500006 5.9355026952000012 6.4966186429500015 0.89981997795000013 0.78097282550000013 0.67562822600000005 18.345374512850004 0.52220231160000008 0.80558032610000008 0.33085724260000005 2.7015334797500006 1.8874032606500002 55.299321407000008 4.9560502581500012 2.0249992535500003 2.7147950501500007 1.0418079848500001 2.5852998200500004 7.7366961228500015 4.5658038378500008 0.087693805350000015
decision_type=2 2 2 2 2 2 2 2 2 2 2 2 2 2 2 2 2 2 2 2 2 2 2 2 2 2 2 2 2 2
left_child=3 2 6 12 10 13 8 21 23 25 17 15 18 -5 -15 22 -11 -4 -1 -13 29 -3 -6 -2 -18 -10 -8 -9 -19 -7
right_child=1 7 4 5 11 20 26 27 9 16 -12 19 -14 14 -16 -17 24 28 -20 -21 -22 -23 -24 -25 -26 -27 -28 -29 -30 -31
leaf_value=-0.69903422417360161 -0.62455504979216847 -0.65724807202878421 -0.61321000621588595 -0.66258132216376464 -0.62909117287482041 -0.63160638412145931 -0.65725601146480128 -0.64084128493762826 -0.63825151409588221 -0.62342492980217901 -0.60335045172631341 -0.61392745789834713 -0.64980846117800162 -0.64581754084860898 -0.66583037263379063 -0.63488055215188499 -0.63383663082974362 -0.62369302407395011 -0.67704938538947657 -0.62335059805410786 -0.62786236717865296 -0.67429469416261079 -0.62223176931618851 -0.61467175646328309 -0.62852925271272642 -0.63008502047440595 -0.64369227706106236 -0.62690871774688128 -0.61710363920920974 -0.64265148410546336
leaf_weight=73 246 219 733 341 523 103 82 93 1021 718 402 443 52 792 125 377 530 465 127 251 132 73 528 286 821 140 197 64 346 187
leaf_count=73 246 219 733 341 523 103 82 93 1021 718 402 443 52 792 125 377 530 465 127 251 132 73 528 286 821 140 197 64 346 187
internal_value=-0.631363 -0.626666 -0.62523 -0.652169 -0.619587 -0.6482 -0.630928 -0.652453 -0.629649 -0.631363 -0.614263 -0.624502 -0.678352 -0.652461 -0.648622 -0.628083 -0.628117 -0.617149 -0.685424 -0.617235 -0.63533 -0.661749 -0.625579 -0.61911 -0.630663 -0.637206 -0.64793 -0.634716 -0.620795 -0.63897
internal_weight=0 8558 8109 1932 4068 1680 4041 449 3762 3230 1946 2122 252 1258 917 1428 2069 1544 200 694 422 292 1051 532 1351 1161 279 157 811 290
internal_count=10490 8558 8109 1932 4068 1680 4041 449 3762 3230 1946 2122 252 1258 917 1428 2069 1544 200 694 422 292 1051 532 1351 1161 279 157 811 290
is_linear=0
shrinkage=1


Tree=1
num_leaves=31
num_cat=0
split_feature=3 7 3 3 0 2 0 3 0 3 3 0 2 3 3 0 0 0 0 3 3 0 0 3 4 7 0 3 2 3
split_gain=181.303 57.2863 41.929 37.69 19.4319 17.396 15.7886 12.6627 11.5367 10.9577 9.98326 8.92393 8.5037 8.41657 8.27371 4.41329 3.26714 3.06354 2.38095 2.34826 2.22972 2.20881 2.15253 2.15222 2.02521 2.00376 1.6827 1.62864 1.40947 1.39352
threshold=1.5319029207000001 30.248315023450001 3.8626191996000006 0.36056801355000007 1.3269528900000003 1.0624929828000003 1.5656628621500002 5.7120315226500002 0.24643610130000002 2.5381896602000005 0.78097282550000013 0.67562822600000005 0.43368536030000004 6.4966186429500015 6.4127999044000008 2.2415741152500002 0.57170666570000017 0.6078278438500001 0.7943926964000001 2.0249992535500003 0.20746455585000004 0.094139874450000008 2.5374074139000005 2.0036355458000004 0.80378406650000012 55.299321407000008 0.055403619650000006 1.2544077454500002 2.2586868495000005 7.7366961228500015
decision_type=2 2 2 2 2 2 2 2 2 2 2 2 2 2 2 2 2 2 2 2 2 2 2 2 2 2 2 2 2 2
left_child=3 2 6 12 14 10 8 25 19 18 26 21 20 15 17 -6 -11 -4 23 -2 -1 -12 -15 -10 -14 -3 -5 -23 -7 -9
right_child=1 7 4 5 13 28 -8 29 9 16 11 -13 24 22 -16 -17 -18 -19 -20 -21 -22 27 -24 -25 -26 -27 -28 -29 -30 -31
leaf_value=-0.068683238811180242 0.0054173019409271168 -0.024072815478528475 0.020346870591765959 -0.006879537700890349 0.0067814022568641616 -0.0032514933218424952 -0.014604934399798432 -0.0088145033218547386 -0.005169021928373891 0.0090217091571671154 -0.00084892234621712799 -0.030966780384381616 -0.038516533629347885 0.01665626015132084 0.027889228861520787 -0.0013788431929725481 0.0024250718451378902 0.012441565353331281 -0.0099317628985892397 0.014808074416890742 -0.045071659268935527 -0.015796562222372031 0.0081046175597745736 0.00035891872072595657 -0.016627155371388654 -0.03992617389518921 -0.029274324902792349 -0.0092845890868222362 0.006527470005676151 0.0041427842655684805
leaf_weight=61 245 219 380 26 809 218 285 93 634 571 91 147 60 401 303 522 1161 971 239 375 75 549 293 710 56 73 351 400 108 64
leaf_count=61 245 219 380 26 809 218 285 93 634 571 91 147 60 401 303 522 1161 971 239 375 75 549 293 710 56 73 351 400 108 64
internal_value=0 0.00466109 0.00605038 -0.0181679 0.0115149 -0.0147214 0.00126985 -0.019624 0.0024374 0.000775531 -0.0177875 -0.0145118 -0.0437387 0.00685936 0.0171723 0.00352847 0.00464025 0.0147169 -0.00340873 0.0112101 -0.0561769 -0.0121187 0.0131467 -0.00219667 -0.0285527 -0.0282759 -0.0279155 -0.0131256 0 -0.00308669
internal_weight=0 8348 7899 2142 3679 1890 4220 449 3935 3315 1564 1187 252 2025 1654 1331 1732 1351 1583 620 136 1040 694 1344 116 292 377 949 326 157
internal_count=10490 8348 7899 2142 3679 1890 4220 449 3935 3315 1564 1187 252 2025 1654 1331 1732 1351 1583 620 136 1040 694 1344 116 292 377 949 326 157
is_linear=0
shrinkage=0.07


Tree=2
num_leaves=31
num_cat=0
split_feature=3 7 3 3 3 0 3 2 0 7 2 3 3 7 3 3 0 0 7 1 0 7 2 3 2 4 3 0 3 0
split_gain=157.38 48.4157 41.1495 30.0234 14.6948 14.5959 14.2119 14.0573 13.176 9.89804 7.26829 6.95988 6.48789 6.3669 5.66494 4.44572 4.06924 3.82648 2.95592 2.66013 2.47649 2.23225 1.88653 1.8427 1.80474 1.71025 1.42939 1.23482 1.22009 1.20042
threshold=1.4329363309000003 28.589628256200005 3.1924058560500002 0.36056801355000007 7.2706961530500012 1.3138556110000001 5.8412826634000004 0.65602353745000008 0.23233520380000003 10.442807457350002 0.43368536030000004 0.78097282550000013 2.0036355458000004 4.9474819649000006 4.5658038378500008 5.1995143833000013 1.3138556110000001 0.61472784130000013 15.294077150900003 0.16978655275000001 2.3416671991500002 49.243802086250007 1.8874032606500002 0.14798580900000005 1.5765926341500003 0.89981997795000013 2.0449035270000002 0.7943926964000001 8.7745569825500009 0.087693805350000015
decision_type=2 2 2 2 2 2 2 2 2 2 2 2 2 2 2 2 2 2 2 2 2 2 2 2 2 2 2 2 2 2
left_child=3 2 8 10 5 14 21 11 24 12 23 -5 -10 -13 17 18 -6 -4 -7 -14 -17 -3 29 -1 26 -12 -2 -16 -8 -9
right_child=1 6 4 7 16 15 28 22 9 -11 25 13 19 -15 27 20 -18 -19 -20 -21 -22 -23 -24 -25 -26 -27 -28 -29 -30 -31
leaf_value=-0.067872171332669817 0.0019949178397900289 -0.020417823318997004 0.01423395129269449 -0.027328684503124739 0.028796609641634271 0.002646844451295319 -0.0044094870688801994 -0.00010030297767284707 -0.0063075043620225485 -0.017733187692510109 -0.034713094927259353 -0.012526145534832894 0.0057818448160005384 -0.029874410570360894 0.020126219794913209 0.010133485768176617 0.015606057349578083 0.0063060482800325647 -0.0060566037764398905 -0.0004096848433914121 0.0024986188247757739 -0.034524345497290297 0.0030012140350917245 -0.044318763298052614 0.015407674098823919 -0.014069133139481502 0.010890681280069786 0.013741016252958685 0.0081627985744155019 -0.0099609447166969529
leaf_weight=43 214 234 494 334 197 638 142 108 846 193 67 778 450 129 373 525 389 898 273 1324 393 105 132 93 176 49 186 458 50 199
leaf_count=43 214 234 494 334 197 638 142 108 846 193 67 778 450 129 373 525 389 898 273 1324 393 105 132 93 176 49 186 458 50 199
internal_value=0 0.00407105 0.00543178 -0.0180482 0.00971665 0.00818908 -0.0163669 -0.0146035 -0.000411601 -0.00240642 -0.0407354 -0.0184262 -0.00125066 -0.0150707 0.012013 0.00350316 0.0201599 0.00916983 0 0.00112142 0.00694122 -0.0249936 -0.00363759 -0.0522805 0.00920891 -0.0265962 0.00630645 0.0166913 -0.000770871 -0.00672007
internal_weight=0 8558 8027 1932 4638 4052 531 1680 3389 2813 252 1241 2620 907 2223 1829 586 1392 911 1774 918 339 439 136 576 116 400 831 192 307
internal_count=10490 8558 8027 1932 4638 4052 531 1680 3389 2813 252 1241 2620 907 2223 1829 586 1392 911 1774 918 339 439 136 576 116 400 831 192 307
is_linear=0
shrinkage=0.07


Tree=3
num_leaves=31
num_cat=0
split_feature=3 7 3 3 0 0 3 2 4 7 3 5 2 3 0 3 3 3 0 3 0 3 3 0 7 0 0 3 1 3
split_gain=136.804 45.4893 34.979 25.9059 13.1949 12.8083 12.3546 11.6164 11.5673 8.73356 7.94729 7.93603 5.90248 5.15895 3.74238 3.38612 2.93132 2.80987 2.38897 2.37023 1.77112 1.74289 1.73289 1.63502 1.57852 1.34157 1.28087 1.24552 1.22925 1.08109
threshold=1.7550730320500001 28.589628256200005 0.75404305820000006 4.4665021796500008 1.2495695788500003 0.35651089370000005 5.4542270278000009 0.85817880625000009 0.42686719215000007 14.418070242600001 2.7147950501500007 3.6184147598000007 0.67031629280000016 7.2706961530500012 2.1988724812000005 7.2706961530500012 2.6719107311500001 1.2544077454500002 0.80558032610000008 0.25993112880000008 0.77492297085000017 0.46537126955000008 7.7366961228500015 0.17452677600000002 55.299321407000008 0.17452677600000002 0.075991067450000019 3.5520561053500006 0.044279494950000005 3.3584868771000003
decision_type=2 2 2 2 2 2 2 2 2 2 2 2 2 2 2 2 2 2 2 2 2 2 2 2 2 2 2 2 2 2
left_child=2 3 8 5 15 16 24 11 19 10 20 17 21 14 -6 -5 28 26 -12 -1 -7 -10 -8 -9 -3 -19 -4 -20 -2 -11
right_child=1 6 7 4 13 9 22 23 12 29 18 -13 -14 -15 -16 -17 -18 25 27 -21 -22 -23 -24 -25 -26 -27 -28 -29 -30 -31
leaf_value=-0.054723314374601574 0.010817296152620661 -0.020968600679674876 -0.0011042311183908689 0.015706260603927307 0.0087096709274499806 -0.00097978357805214534 -0.0075199756247537972 0.0053438926386829141 -0.036371532907783992 -0.018188800013652355 0.0071675178137354757 -0.026880283374805004 -0.012070462986502505 0.01479597328619177 0.0011996100220741642 0.02696456727063334 0.015124104108768875 0.00013066302143086337 -0.00047810184519201157 -0.024962498761661768 -0.0072026950950404159 -0.024148423944290717 0.0047466203844348017 -0.0035642855714324347 -0.035387587308883674 -0.0080888555843481123 -0.014555390094850486 0.0040782684356866303 0.0037411133001618046 -0.0072118528988446857
leaf_weight=89 233 230 49 810 804 988 144 230 125 99 918 160 178 401 586 185 364 95 450 27 305 253 86 172 70 646 580 730 344 139
leaf_count=89 233 230 49 810 804 988 144 230 125 99 918 160 178 401 586 185 364 95 450 27 305 253 86 172 70 646 580 730 344 139
internal_value=0 0.00459054 -0.0139143 0.00602441 0.0113529 0.00276069 -0.0151784 -0.00907558 -0.0277216 0.000852517 0.00178028 -0.0118628 -0.0232815 0.00769332 0.00559392 0.0178699 0.0100452 -0.0100578 0.0044527 -0.0483997 -0.00250182 -0.0283756 -0.00262899 0.0013583 -0.0245664 -0.0069406 -0.0136188 0.00228135 0.00671988 -0.012072
internal_weight=0 7886 2604 7356 2786 4570 530 1932 672 3629 3391 1530 556 1791 1390 995 941 1370 2098 116 1293 378 230 402 300 741 629 1180 577 238
internal_count=10490 7886 2604 7356 2786 4570 530 1932 672 3629 3391 1530 556 1791 1390 995 941 1370 2098 116 1293 378 230 402 300 741 629 1180 577 238
is_linear=0
shrinkage=0.07


Tree=4
num_leaves=31
num_cat=0
split_feature=3 7 3 3 0 0 3 2 2 3 3 0 2 0 3 7 3 6 3 7 3 0 3 3 3 3 0 0 5 1
split_gain=119.066 34.9702 36.7396 18.5095 12.4203 11.5666 9.66828 9.53348 8.99158 8.27263 6.717 6.55567 5.48925 5.27261 4.49314 3.32865 3.86035 2.37115 2.09939 2.0572 2.0181 1.95077 1.70753 1.54227 1.53115 1.42591 1.41303 1.35395 1.2197 1.15918
threshold=1.2544077454500002 30.248315023450001 3.1924058560500002 0.36056801355000007 0.74985325830000005 1.1007092635500002 5.6715410246000006 1.1746803879000003 0.70188109090000006 6.4966186429500015 2.1858768132000006 1.7270427547000002 0.43368536030000004 2.0228144802500005 5.099519044800001 3.7503222476000002 0.78097282550000013 3.5461512500000008 4.2201018943500008 19.862584788200003 4.5658038378500008 0.17452677600000002 2.2284302404500003 8.7745569825500009 1.6628779564000002 0.20746455585000004 0.39061097240000003 0.064270833400000019 0.7668938338500001 0.10289661545000002
decision_type=2 2 2 2 2 2 2 2 2 2 2 2 2 2 2 2 2 2 2 2 2 2 2 2 2 2 2 2 2 2
left_child=3 2 5 12 14 7 11 10 15 20 21 18 25 -8 29 16 -5 -12 -6 -13 -3 -2 -7 -15 -23 -1 -9 -10 -14 -4
right_child=1 9 4 8 6 22 13 26 27 -11 17 19 28 23 -16 -17 -18 -19 -20 -21 -22 24 -24 -25 -26 -27 -28 -29 -30 -31
leaf_value=-0.056011894081459672 0.0020005732756965843 -0.026906991272686642 0.017173477036745422 -0.022250652516438926 0.0030791395665932713 -0.02032757761872421 0.015586017980647741 0.010205717497997212 0.0016256676742032303 0 0.0095380793883637332 0 -0.030829124591603391 0.0051950716687994688 0.022507474253984663 -0.027843815973689481 -0.01179710162693893 0.00085099431663117342 0.0084262858308654428 -0.0085066528378520169 -0.014235273236772114 -0.0085181870333766712 -0.0090333709239494072 0.015235935140055482 -0.003440652518187795 -0.036107234355062245 0.0022892033864870126 -0.0074337495594309598 -0.013038708412511783 0.010157065505892463
leaf_weight=61 171 187 196 311 761 118 640 447 113 121 184 492 61 632 291 155 511 1112 793 190 141 562 245 97 752 75 180 212 55 624
leaf_count=61 171 187 196 311 761 118 640 447 113 121 184 492 61 632 291 155 511 1112 793 190 141 562 245 97 752 75 180 212 55 624
internal_value=0 0.00310481 0.00411858 -0.0178885 0.00823863 -0.00101538 0.00621074 0.000229704 -0.0144365 -0.0159015 -0.00150708 0.00332893 -0.0354463 0.0108665 0.0147558 -0.0178138 -0.0158373 0.00213836 0.00585281 -0.00231934 -0.0216731 -0.00473569 -0.0128976 0.00662712 -0.00566559 -0.0455498 0.00804468 -0.00406848 -0.0229975 0.0119195
internal_weight=0 8936 8487 1554 4716 3771 3605 3408 1302 449 2781 2236 252 1369 1111 977 822 1296 1554 682 328 1485 363 729 1314 136 627 325 116 820
internal_count=10490 8936 8487 1554 4716 3771 3605 3408 1302 449 2781 2236 252 1369 1111 977 822 1296 1554 682 328 1485 363 729 1314 136 627 325 116 820
is_linear=0
shrinkage=0.07


Tree=5
num_leaves=31
num_cat=0
split_feature=3 7 3 3 3 0 0 0 4 7 3 2 0 3 3 0 3 0 3 3 3 3 7 0 2 3 3 3 0 0
split_gain=103.454 35.019 27.7814 18.9956 10.4138 9.81554 9.08084 8.98645 8.79517 6.9815 7.46833 6.62733 4.71949 3.16671 2.30363 2.27437 2.18927 1.99287 1.97158 1.83773 1.6609 1.42969 1.42475 1.36219 1.35586 1.3369 1.32564 1.19362 1.09531 0.90103
threshold=1.8161412791000002 27.479920629650003 0.75404305820000006 4.9850041691500016 5.6191132715000007 0.35651089370000005 0.64200518895000014 1.2175644739000002 0.42686719215000007 14.090895988500002 3.1422152876500005 0.89567891325000015 0.087693805350000015 8.3048963828500018 1.2544077454500002 2.3084038668500004 2.7147950501500007 1.1931360305500003 3.4750290002500006 0.51397030585000014 0.25993112880000008 7.2706961530500012 49.243802086250007 0.80558032610000008 2.2150275171000007 2.2461049188000004 7.7366961228500015 0.25993112880000008 0.094139874450000008 0.17452677600000002
decision_type=2 2 2 2 2 2 2 2 2 2 2 2 2 2 2 2 2 2 2 2 2 2 2 2 2 2 2 2 2 2
left_child=2 3 8 5 22 16 11 21 20 10 23 14 27 15 28 -9 -2 -12 -11 -14 -1 -5 -3 25 -13 -7 -6 -10 -4 -16
right_child=1 4 6 7 26 9 -8 13 12 18 17 24 19 -15 29 -17 -18 -19 -20 -21 -22 -23 -24 -25 -26 -27 -28 -29 -30 -31
leaf_value=-0.047682040970814361 0.0064827515741448828 -0.016828474840775733 -0.0013322870479896666 0.015465218477106345 -0.0058256466569672405 -0.0025904456327700601 -0.020118035278712199 0.0089887242177501322 -0.018353754946911067 -0.015456010566939685 0.0070868555590412547 -0.00030934990492284092 -0.031625646718201186 0.016344583021411348 4.4177236391211077e-05 0.0027639136491813391 0.013783772535757235 0.0021965580550958848 -0.003820615684173469 -0.019986071284575538 -0.021677360278381793 0.024036956866413862 -0.028706422062481154 -0.0041144583325299711 0.0085839013342047122 0.0020702400054318304 0.0044655427255551328 -0.0044405178759469224 -0.012419986106462668 -0.0063395859657724429
leaf_weight=89 547 223 63 480 146 469 255 770 56 110 1315 283 147 199 103 522 386 662 278 244 27 177 102 447 112 827 100 109 555 687
leaf_count=89 547 223 63 480 146 469 255 770 56 110 1315 283 147 199 103 522 386 662 278 244 27 177 102 447 112 827 100 109 555 687
internal_value=0 0.00411796 -0.0117254 0.00545001 -0.0125303 0.00308186 -0.00764044 0.0109751 -0.0241315 0.00158935 0.00253531 -0.00583689 -0.0202291 0.00788508 -0.00809501 0.00652793 0.00957835 0.00548474 -0.00729972 -0.0245411 -0.0422327 0.017881 -0.0207717 -0.000769933 0.00203507 0.000329606 -0.00135768 -0.00958683 -0.011403 -0.00541866
internal_weight=0 7760 2730 7189 571 5041 2058 2148 672 4108 3720 1803 556 1491 1408 1292 933 1977 388 391 116 657 325 1743 395 1296 246 165 618 790
internal_count=10490 7760 2730 7189 571 5041 2058 2148 672 4108 3720 1803 556 1491 1408 1292 933 1977 388 391 116 657 325 1743 395 1296 246 165 618 790
is_linear=0
shrinkage=0.07


Tree=6
num_leaves=31
num_cat=0
split_feature=3 7 3 3 0 0 7 3 2 3 3 3 2 7 3 1 0 7 5 2 0 3 2 7 3 3 3 3 3 7
split_gain=90.1572 26.7209 27.2297 14.7098 10.11 9.41001 7.44577 7.46518 7.2408 6.33243 5.4845 5.47711 4.42997 2.84798 3.52665 2.42299 2.23823 2.12964 1.82481 1.78092 1.50489 1.39763 1.32354 1.2998 1.25738 1.19141 1.14873 0.92337 0.902199 0.857623
threshold=1.2936798501500004 30.248315023450001 3.6340191445500003 0.36056801355000007 1.4401908500500002 0.20565019710000002 11.099388327950001 2.3019173860000004 0.65602353745000008 5.233259695500001 6.0820402593000003 6.0820402593000003 1.3586344191500002 4.2050421074000006 0.84499900465000011 0.22929107585000005 0.52220231160000008 19.563017941850003 0.20660372565000004 1.7049745995000001 3.1374190108000004 1.9199582304000002 2.1338481430000003 5.4689249535500011 7.1966766262000013 1.6976652601500002 2.8468346132500004 4.6542287676000003 8.5380140198500012 55.299321407000008
decision_type=2 2 2 2 2 2 2 2 2 2 2 2 2 2 2 2 2 2 2 2 2 2 2 2 2 2 2 2 2 2
left_child=3 2 5 12 10 21 7 19 13 29 15 17 18 14 -5 -4 -9 -6 -1 23 28 -2 -10 25 -11 -7 -8 -17 -13 -3
right_child=1 9 4 8 11 6 26 16 22 24 -12 20 -14 -15 -16 27 -18 -19 -20 -21 -22 -23 -24 -25 -26 -27 -28 -29 -30 -31
leaf_value=-0.046784990483240502 0.0038680283110466914 -0.017906674393094502 0.014111322610007301 -0.019167551498734548 0.0025226148176790411 -0.0063552418162667566 -0.018113602611346775 0.0059812130184091509 -0.005745535731399784 -0.0090059866264271433 0.018635266219424768 0.0084379809128562501 -0.01296106290848305 -0.025161552522601428 -0.0096931425052363494 0.0058699732633546893 0.0007193797513103873 -0.0048093693757714634 -0.029142695215085279 0.0042641933591805545 0.0023442537166456084 0.011129425995503281 0.0040838735612414899 -0.0097465607336535247 0.0016115336168269793 -0.0018107897388461669 -0.0078260788419963027 0.010119788021873161 0.015860710321753114 -0.030150720344139983
leaf_weight=74 277 182 429 356 860 522 118 602 278 117 410 491 63 138 534 741 1270 247 115 109 181 331 80 229 85 750 168 533 135 65
leaf_count=74 277 182 429 356 860 522 118 602 278 117 410 491 63 138 534 741 1270 247 115 109 181 331 80 229 85 750 168 533 135 65
internal_value=0 0.00278434 0.00367994 -0.0150932 0.00783407 -0.000126895 -0.00144654 -0.000533714 -0.0121808 -0.0138208 0.0111915 0.00409096 -0.0308335 -0.0151868 -0.0135616 0.00935834 0.00244888 0.000823428 -0.0364206 -0.00404515 0.00848644 0.00793632 -0.00335349 -0.0046952 -0.00419168 -0.00373076 -0.0123153 0.0077029 0.0101506 -0.0214122
internal_weight=0 8852 8403 1638 4027 4376 3768 3482 1386 449 2113 1914 252 1028 890 1703 1872 1107 189 1610 807 608 358 1501 202 1272 286 1274 626 247
internal_count=10490 8852 8403 1638 4027 4376 3768 3482 1386 449 2113 1914 252 1028 890 1703 1872 1107 189 1610 807 608 358 1501 202 1272 286 1274 626 247
is_linear=0
shrinkage=0.07


Tree=7
num_leaves=31
num_cat=0
split_feature=3 7 3 3 0 1 3 2 2 5 3 7 3 3 0 3 3 3 5 3 0 0 0 0 2 3 3 7 0 0
split_gain=78.3616 24.7368 19.2271 16.8939 8.54199 7.76666 7.221 6.81475 5.80397 5.39897 4.96353 4.44823 4.26415 2.97952 2.93814 2.37305 2.04674 1.97571 1.62115 1.47523 1.32881 1.20079 1.04801 1.02711 0.921209 0.870414 0.79193 0.747161 0.745823 0.735778
threshold=1.5319029207000001 28.589628256200005 4.0840161251500007 0.58531411675000011 0.99037481130000016 0.11185723265000001 5.1995143833000013 0.89567891325000015 0.47220813280000001 8.0553605413000025 2.5381896602000005 4.7624043946000008 7.2706961530500012 0.20746455585000004 2.1988724812000005 2.0631988078500005 1.0501099929500002 6.9503624130000015 0.5478867809500001 6.9503624130000015 0.80558032610000008 0.80558032610000008 0.20913230335000002 0.17452677600000002 1.6143689617500001 4.7773795717000009 5.4226214407500004 44.720344592750003 2.3416671991500002 0.075991067450000019
decision_type=2 2 2 2 2 2 2 2 2 2 2 2 2 2 2 2 2 2 2 2 2 2 2 2 2 2 2 2 2 2
left_child=3 2 5 8 17 15 27 11 13 10 21 16 14 -1 25 24 29 -4 -10 -8 -12 -7 -9 -18 -2 -6 -16 -3 -14 -5
right_child=1 6 4 7 12 9 19 22 18 -11 20 -13 28 -15 26 -17 23 -19 -20 -21 -22 -23 -24 -25 -26 -27 -28 -29 -30 -31
leaf_value=-0.045704128560092719 0 -0.015271627765028708 0.012296059054990116 -0.0020203837411562828 0.0035710437669566751 -0.0019530493032316181 -0.0082634406974070023 0.0029539209925965905 -0.024486412451271033 -0.0106622270454563 0.0043516036506016003 -0.021145565157696125 0.01459068844776968 -0.02589030077717468 -0.0027283543793217061 0.0090112107869735163 0 0.021853693655946041 -0.0089882776551487905 0.001880369315295516 0.00051853379885147136 -0.0077044962626535204 -0.0059864543133078089 -0.0076263173611675244 0.0084191601584302032 0.0076815347740297538 0.0023757548872603267 -0.025193070853129031 0.0075595810076416019 -0.013605595242772306
leaf_weight=63 306 155 738 44 470 1128 134 235 59 239 990 186 284 204 235 648 114 154 136 130 886 229 87 569 82 863 391 112 174 445
leaf_count=63 306 155 738 44 470 1128 134 235 59 239 990 186 284 204 235 648 114 154 136 130 886 229 87 569 82 863 391 112 174 445
internal_value=0 0.00305747 0.00405722 -0.011951 0.00811254 0.00106498 -0.0115284 -0.00862556 -0.023892 -0.000503495 0.00022584 -0.0107984 0.00590171 -0.0308276 0.00442333 0.00638904 -0.0090966 0.0140246 -0.0140364 -0.00300323 0.00257863 -0.00297522 0.000320962 -0.00640971 0.00182933 0.00628474 0.000347854 -0.0196956 0.0120723 -0.0127063
internal_weight=0 8348 7817 2142 3309 4508 531 1680 462 3472 3233 1358 2417 267 1959 1036 1172 892 195 264 1876 1357 322 683 388 1333 626 267 458 489
internal_count=10490 8348 7817 2142 3309 4508 531 1680 462 3472 3233 1358 2417 267 1959 1036 1172 892 195 264 1876 1357 322 683 388 1333 626 267 458 489
is_linear=0
shrinkage=0.07


Tree=8
num_leaves=31
num_cat=0
split_feature=3 7 3 3 0 0 2 2 3 3 3 3 3 5 2 7 0 0 0 7 0 2 3 3 3 3 0 3 5 3
split_gain=68.2908 20.1059 21.1546 10.9366 8.90289 8.85532 7.1758 6.11791 5.28314 4.53021 4.30139 3.07674 2.76229 2.67565 2.54008 2.22008 1.98651 1.86793 1.73654 1.73622 1.2815 1.12713 1.01191 0.983208 0.981121 0.7998 0.734698 0.707279 0.711321 0.698716
threshold=1.2544077454500002 36.253197342900002 3.6065347773500007 0.25993112880000008 1.4401908500500002 1.42297891985 1.2124473021500004 0.67031629280000016 2.3214247968500001 5.9942291978500011 5.8412826634000004 0.65851395700000015 4.5076682690000007 3.0632694268000003 0.43368536030000004 19.862584788200003 0.80558032610000008 0.44170347815000005 3.1374190108000004 4.0146449258500008 0.45010435435000007 1.9119016754500002 1.8161412791000002 1.8161412791000002 7.4923583497000008 9.0117721252500029 0.094139874450000008 2.5852998200500004 9.6724861046000026 7.9866542037500006
decision_type=2 2 2 2 2 2 2 2 2 2 2 2 2 2 2 2 2 2 2 2 2 2 2 2 2 2 2 2 2 2
left_child=3 2 5 14 10 6 8 11 19 15 16 -5 -3 26 -1 -6 -4 -10 25 23 -8 -9 -21 -2 -14 -11 -13 -7 -29 -12
right_child=1 12 4 7 9 27 20 21 17 18 29 13 24 -15 -16 -17 -18 -19 -20 22 -22 -23 -24 -25 -26 -27 -28 28 -30 -31
leaf_value=-0.039991586632853335 -0.003188057915839885 -0.024192595879236861 0.010761519814091219 -0.021062691778788577 0.0019246628440720268 -0.017507771903308492 0.0085829631533354267 -0.0058988435068454241 0.0062840200202363581 0.0074251382764007091 0.013181609752378903 -0.00093537867772283808 -0.012061888681152674 -0.024141329235086842 -0.020038992078859848 -0.005358387957549119 0.0056003698591801489 0.00060374271202120122 0.0015156915799566272 -0.010172634458790224 0.0016852996043381474 0.0023602791423791834 -0.004092606480977418 0.0012048111809458597 0 0.015218102750603601 -0.010806633920629381 -0.0043788829963566289 -0.013370447286239297 0.020468269345154499
leaf_weight=86 716 123 720 264 847 93 532 256 383 573 343 56 127 84 82 270 935 1233 254 240 212 104 460 355 35 99 622 127 107 152
leaf_count=86 716 123 720 264 847 93 532 256 383 573 343 56 127 84 82 270 935 1233 254 240 212 104 460 355 35 99 622 127 107 152
internal_value=0 0.00234709 0.00295658 -0.0135519 0.00652676 -0.000385675 0.000475827 -0.0114265 -0.000873274 0.00316672 0.00968703 -0.0142032 -0.0159081 -0.0117349 -0.0306695 0.000101544 0.007888 0.00199331 0.00678853 -0.0035285 0.00671159 -0.00331843 -0.00627719 -0.00166661 -0.00918588 0.00867738 -0.0100946 -0.0114831 -0.00878956 0.0155605
internal_weight=0 8936 8651 1554 4193 4458 4131 1386 3387 2043 2150 1026 285 762 168 1117 1655 1616 926 1771 744 360 700 1071 162 672 678 327 234 495
internal_count=10490 8936 8651 1554 4193 4458 4131 1386 3387 2043 2150 1026 285 762 168 1117 1655 1616 926 1771 744 360 700 1071 162 672 678 327 234 495
is_linear=0
shrinkage=0.07


Tree=9
num_leaves=31
num_cat=0
split_feature=3 7 3 3 0 0 2 2 3 2 3 3 0 7 3 0 0 3 3 7 7 0 3 7 3 3 7 5 3 3
split_gain=59.3657 17.8363 16.6331 10.7409 8.82996 8.58663 6.16442 5.10754 4.45222 4.20194 4.16078 3.08224 2.49902 2.14214 1.99671 1.99519 1.99441 1.64241 1.3741 1.32091 1.08455 1.05915 0.825508 0.885455 0.794696 0.67735 0.693733 0.675758 0.647306 0.622689
threshold=1.3541558188500002 38.799979707300004 3.8889061031500005 0.41263388700000009 1.5656628621500002 1.9251269985500004 1.6143689617500001 0.65602353745000008 2.3214247968500001 1.3586344191500002 6.9503624130000015 6.287538799950001 0.80558032610000008 3.7503222476000002 0.84499900465000011 0.17452677600000002 0.44170347815000005 4.5076682690000007 0.14798580900000005 22.961711013550005 4.6454559420500008 0.087693805350000015 8.7745569825500009 23.472938779950002 4.7773795717000009 2.5852998200500004 18.830358582850003 1.4933524239000002 2.8468346132500004 1.8161412791000002
decision_type=2 2 2 2 2 2 2 2 2 2 2 2 2 2 2 2 2 2 2 2 2 2 2 2 2 2 2 2 2 2
left_child=3 2 4 9 6 10 8 13 15 18 12 19 -4 14 -5 -2 -10 -3 -1 -7 29 -9 23 -13 -14 -6 -27 -23 -18 -17
right_child=1 17 5 7 25 11 -8 21 16 -11 -12 22 24 -15 -16 20 28 -19 -20 -21 -22 27 -24 -25 -26 26 -28 -29 -30 -31
leaf_value=-0.040758437885200248 0.0035124847753546773 -0.023024427508935335 0.011236466186798907 -0.014684040781997264 -0.016949931555768339 0.00064498696507088785 0.0079843026370206779 0.0023674610618036242 0.0061849915234934837 -0.0088272405612485443 0.015661483268536953 0.0061801750177306776 0.0037336685900530597 -0.01907717609457258 -0.007389095197722283 -0.0037316426450089116 -0.00082419921078009299 -0.0099839252761607499 -0.024708881007636307 -0.0058138936425049638 -0.0063654182596032385 -0.010957801554148728 0.010767971122207551 0 0.0074406044720898134 -0.0045586059036741063 -0.012774011013900926 -0.0019472010617137131 0.0020255459155683101 -5.5232765131889923e-05
leaf_weight=57 213 112 647 329 82 528 540 147 473 78 391 327 649 180 583 556 591 132 159 212 490 71 130 190 721 160 116 160 1019 447
leaf_count=57 213 112 647 329 82 528 540 147 473 78 391 327 649 180 583 556 591 132 159 212 490 71 130 190 721 160 116 160 1019 447
internal_value=0 0.00235939 0.00290316 -0.0117204 9.86813e-05 0.00634838 0.000987197 -0.00920022 0 -0.0240832 0.0088835 0.00189665 0.00753486 -0.0116417 -0.0100975 -0.00266142 0.00216151 -0.0162566 -0.0292683 -0.0011108 -0.00358911 -0.00196174 0.00544458 0.00397061 0.00573564 -0.0104499 -0.00826508 -0.00501972 0.000935981 -0.00216299
internal_weight=0 8726 8482 1764 4687 3795 4329 1470 3789 294 2408 1387 2017 1092 912 1706 2083 244 216 740 1493 378 647 517 1370 358 276 231 1610 1003
internal_count=10490 8726 8482 1764 4687 3795 4329 1470 3789 294 2408 1387 2017 1092 912 1706 2083 244 216 740 1493 378 647 517 1370 358 276 231 1610 1003
is_linear=0
shrinkage=0.07


Tree=10
num_leaves=31
num_cat=0
split_feature=3 7 3 3 3 0 0 0 5 7 0 7 3 3 3 3 3 3 2 3 0 3 0 2 3 2 0 0 7 3
split_gain=51.7424 17.7945 14.2668 10.5755 6.90591 5.78882 5.49721 4.68728 4.61819 3.42735 3.20259 3.11328 2.83108 2.06649 1.56549 1.26627 1.12849 1.12648 1.09706 1.09396 1.06998 1.00566 1.00511 0.607152 0.60509 0.588793 0.581544 0.581351 0.481517 0.441739
threshold=1.8161412791000002 25.278565578500004 0.75404305820000006 4.4665021796500008 5.742913080450001 0.35651089370000005 0.17452677600000002 1.1259434798500003 0.46797898055000003 8.2420755566000015 0.094139874450000008 13.440828190600003 2.7147950501500007 7.0320435646000012 1.1446801598500003 0.14798580900000005 9.5762108160000015 7.2706961530500012 1.2889505003000001 2.7147950501500007 2.1988724812000005 4.5658038378500008 1.1931360305500003 1.2124473021500004 1.0716113605500002 2.4457173351000008 0.77492297085000017 0.12041204350000002 3.6190752017000007 3.3584868771000003
decision_type=2 2 2 2 2 2 2 2 2 2 2 2 2 2 2 2 2 2 2 2 2 2 2 2 2 2 2 2 2 2
left_child=2 3 8 5 21 19 18 17 15 14 -10 12 26 20 -8 -1 -6 -5 24 27 -9 -3 29 -17 -4 28 -7 -2 -16 -14
right_child=1 4 6 7 16 11 9 13 10 -11 -12 -13 22 -15 25 23 -18 -19 -20 -21 -22 -23 -24 -25 -26 -27 -28 -29 -30 -31
leaf_value=-0.03747838850412518 0.0086771341986116649 -0.017201060951390165 -0.004642147222078387 0.010359034342803143 -0.0017972196919384944 -0.0005561441542579151 -0.010441969616143536 0.005373009421256284 -0.0046361300247703694 -0.018626415434676087 -0.017399088790445928 -0.0066702908736070684 0.00214203713028727 0.009613450202159585 -0.0037798940376580132 -0.024233112820483588 0.0096981753777712586 0.017830794900066303 0.0057633625781163579 0.01011959563985962 0.0010230745043024942 -0.00855324647110264 0 -0.0052474532233318313 0.0011313710383243842 0.0029931505123043764 -0.0043155997104751664 0.003000046431288911 -0.0073652573750716708 0.0047881197538659119
leaf_weight=60 149 235 148 687 256 925 370 891 158 129 340 268 693 448 643 94 50 158 160 349 466 151 505 20 192 34 282 398 382 849
leaf_count=60 149 235 148 687 256 925 370 891 158 129 340 268 693 448 643 94 50 158 160 349 466 151 505 20 192 34 282 398 382 849
internal_value=0 0.00290569 -0.0082989 0.00396111 -0.00777308 0.00184297 -0.00535775 0.00746598 -0.017202 -0.00741243 -0.0134904 0.00054333 0.00115896 0.00538002 -0.00635113 -0.0274228 0 0.011839 0.000904647 0.00687349 0.00393081 -0.0139995 0.00275656 -0.0215163 -0.00117593 -0.00485574 -0.00149249 0.00467443 -0.00518439 0.00364432
internal_weight=0 7760 2730 7068 692 4418 2058 2650 672 1558 498 3522 3254 1805 1429 174 306 845 500 896 1357 386 2047 114 340 1059 1207 547 1025 1542
internal_count=10490 7760 2730 7068 692 4418 2058 2650 672 1558 498 3522 3254 1805 1429 174 306 845 500 896 1357 386 2047 114 340 1059 1207 547 1025 1542
is_linear=0
shrinkage=0.07


Tree=11
num_leaves=31
num_cat=0
split_feature=3 7 3 3 5 0 2 2 2 3 7 3 3 0 3 3 3 0 0 7 0 0 3 0 3 0 1 3 2 1
split_gain=45.1046 14.3701 11.1204 9.82102 6.25001 6.16069 4.82011 4.4379 3.83269 2.79742 2.45295 2.28794 2.21201 1.90175 1.77747 1.60886 1.54965 1.453 1.14652 1.05468 1.01199 0.74166 0.714372 0.591622 0.581706 0.550889 0.523458 0.514629 0.506233 0.479771
threshold=1.5093309472500003 36.253197342900002 4.0840161251500007 0.51397030585000014 8.0553605413000025 1.5656628621500002 1.7529464879000003 0.84746789955000013 1.3272755430000001 2.3214247968500001 4.5952032463500005 6.2299974483500007 5.9355026952000012 0.5167556900500001 6.9503624130000015 0.14798580900000005 1.0501099929500002 0.43239344095000004 0.80558032610000008 20.168708678450002 3.1374190108000004 0.059993224550000009 4.0451985498000012 0.16036378990000003 3.0355648096000003 0.075991067450000019 0.09101431330000001 9.0117721252500029 2.9481717150000004 0.43518792265000006
decision_type=2 2 2 2 2 2 2 2 2 2 2 2 2 2 2 2 2 2 2 2 2 2 2 2 2 2 2 2 2 2
left_child=3 2 4 8 6 11 9 10 15 17 16 18 19 26 22 -1 29 25 -4 -7 27 -9 -3 -18 -15 -2 -11 -14 -23 -5
right_child=1 14 5 7 -6 12 -8 21 -10 13 -12 -13 20 24 -16 -17 23 -19 -20 -21 -22 28 -24 -25 -26 -27 -28 -29 -30 -31
leaf_value=-0.036599910222338862 0.0064982555347082565 -0.022150015312282344 0.0099818453136308119 -0.010696193566097812 -0.0090905665503127793 0.0016484937680708181 0.0079646799682956595 0.0054873473666846124 -0.0069966956756520775 0.0077154128091784287 -0.016292889651509455 0.013424901807760365 0.0056119322953322396 -0.00083745175267782308 0 -0.020523087158641144 0 -0.0043101294718227894 0.0054368990772400896 -0.0040162427248071403 0.0011132271332049591 -0.0032536809435376604 -0.011822914324052958 -0.005693021503718242 0.0017373761936536817 -0.00042214187644713097 0.003215390570052482 0.012287253520554967 0.005207894524355652 0
leaf_weight=54 61 79 516 520 305 584 470 94 103 263 193 421 550 715 45 221 96 688 847 222 259 218 161 536 997 700 417 90 36 29
leaf_count=54 61 79 516 520 305 584 470 94 103 263 193 421 550 715 45 221 96 688 847 222 259 218 161 536 997 700 417 90 36 29
internal_value=0 0.00228606 0.00283641 -0.00918502 0.000565351 0.00582099 0.00126474 -0.00687915 -0.0195044 0.000426681 -0.00866804 0.00871501 0.00275182 0.00191194 -0.0131194 -0.0239345 -0.00736271 -0.00197686 0.00720887 1.38272e-06 0.00513987 0 -0.0155139 -0.00478544 0.000621137 4.05969e-05 0.00505878 0.00666002 -0.00177881 -0.0102021
internal_weight=0 8390 8105 2100 4616 3489 4311 1722 378 3841 1374 1784 1705 2392 285 275 1181 1449 1363 806 899 348 240 632 1712 761 680 640 254 549
internal_count=10490 8390 8105 2100 4616 3489 4311 1722 378 3841 1374 1784 1705 2392 285 275 1181 1449 1363 806 899 348 240 632 1712 761 680 640 254 549
is_linear=0
shrinkage=0.07


Tree=12
num_leaves=31
num_cat=0
split_feature=3 7 3 3 0 0 2 0 3 3 7 3 7 3 3 5 6 7 3 3 7 2 3 0 0 3 5 3 5 3
split_gain=39.3181 11.9427 12.0617 6.645 5.76394 5.64245 4.26269 3.87385 3.11145 3.05249 2.86425 2.33573 1.70528 1.62869 1.59692 1.44422 1.34623 1.08748 1.10088 1.01212 0.891276 0.842348 0.820198 0.787028 0.661266 0.655792 0.646287 0.638674 0.51485 0.495449
threshold=1.2544077454500002 38.799979707300004 3.6065347773500007 0.25993112880000008 1.1007092635500002 0.91426992025000009 1.2124473021500004 0.087693805350000015 2.1588536276500006 8.3048963828500018 20.679110051650003 0.65851395700000015 9.973079160650002 5.099519044800001 5.3843943022500005 0.6966148028000001 3.5461512500000008 15.976922954300003 2.3580014189500003 4.5076682690000007 3.4064071904000008 2.3927815766000005 5.4226214407500004 1.7270427547000002 0.20913230335000002 2.6915306043500005 0.46797898055000003 0.6134184008500001 1.2490650700500001 1.6628779564000002
decision_type=2 2 2 2 2 2 2 2 2 2 2 2 2 2 2 2 2 2 2 2 2 2 2 2 2 2 2 2 2 2
left_child=3 2 4 15 6 13 8 26 20 10 14 -9 24 -4 23 -1 -10 18 -6 -3 -2 -8 -12 -7 28 -18 27 -5 -13 -22
right_child=1 19 5 7 17 9 21 11 16 -11 22 12 -14 -15 -16 -17 25 -19 -20 -21 29 -23 -24 -25 -26 -27 -28 -29 -30 -31
leaf_value=-0.027649650964303878 -0.00086550978809069436 -0.018909865776076912 0.0070286095234815271 -0.014678582488077468 -0.010493567233234644 0.0031504470349310093 0.003590404978185119 -0.016557126448662765 0.0070013207012979209 0.01027588355206212 -0.0058760954924908133 -0.0075314052049740392 -0.023496381923556329 0.013076475446081332 0.0059343079630869667 -0.0092103284075856218 -0.00078979146060894126 -0.012160015461728877 -0.0023492923349901201 -0.0082980146562807618 -0.0073875315184305252 0.0091163565669618411 0 -0.0004642738096693696 -0.00927782835142873 0.0021506961500339181 0.00084607527613783813 0 -0.00096582343901411227 -0.0030516494454949639
leaf_weight=128 706 112 726 29 125 943 479 257 204 288 171 146 40 389 949 40 632 149 336 132 233 241 380 384 538 825 207 24 145 532
leaf_count=128 706 112 726 29 125 943 479 257 204 288 171 146 40 389 949 40 632 149 336 132 233 241 380 384 538 825 207 24 145 532
internal_value=0 0.00177734 0.00221302 -0.0102864 -0.000311168 0.00489219 0.000673538 -0.00861297 -0.000422215 0.00332727 0.00259463 -0.0103962 -0.00849362 0.00920136 0.00370134 -0.023676 0.0016276 -0.0066441 -0.00470945 -0.0134559 -0.00278438 0.00553729 -0.00184981 0.00205169 -0.00768528 0.000827163 -0.000620896 -0.00767114 -0.00450045 -0.00446375
internal_weight=0 8936 8692 1554 4462 4230 3852 1386 3132 3115 2827 1126 869 1115 2276 168 1661 610 461 244 1471 720 551 1327 829 1457 260 53 291 765
internal_count=10490 8936 8692 1554 4462 4230 3852 1386 3132 3115 2827 1126 869 1115 2276 168 1661 610 461 244 1471 720 551 1327 829 1457 260 53 291 765
is_linear=0
shrinkage=0.07


Tree=13
num_leaves=31
num_cat=0
split_feature=3 7 3 3 3 2 0 0 5 0 7 0 3 3 1 6 3 3 0 7 3 2 0 3 3 2 3 0 0 2
split_gain=34.3386 11.9777 9.45797 7.23958 4.58017 4.41413 4.02913 2.98378 2.80392 2.7011 2.48918 2.35096 2.00833 1.88836 1.4385 1.36828 1.06802 0.846733 0.799115 0.772748 0.728792 0.614753 0.564728 0.545129 0.539971 0.489577 0.477082 0.385709 0.380463 0.359385
threshold=1.8161412791000002 25.278565578500004 0.6134184008500001 4.9146791524000006 5.742913080450001 1.6461509769000002 0.094139874450000008 1.2061138169500003 0.46797898055000003 0.87814990485000011 12.481969656500002 0.10941341085000002 1.0501099929500002 2.9356960247500008 0.16978655275000001 5.7557565032000007 7.8679601461000006 9.5762108160000015 0.21399727520000003 68.220535616350006 3.3584868771000003 2.9481717150000004 2.3084038668500004 0.084488366700000025 7.8679601461000006 0.12975983905000002 3.7710491647500004 0.12947864800000003 0.21399727520000003 1.2124473021500004
decision_type=2 2 2 2 2 2 2 2 2 2 2 2 2 2 2 2 2 2 2 2 2 2 2 2 2 2 2 2 2 2
left_child=2 3 8 5 19 10 -4 24 23 12 13 -10 28 14 25 -15 22 -6 -14 -3 -12 -7 -9 -1 -5 -2 -17 -27 -8 -25
right_child=1 4 6 7 17 21 9 16 11 -11 20 -13 18 15 -16 26 -18 -19 -20 -21 -22 -23 -24 29 -26 27 -28 -29 -30 -31
leaf_value=-0.034256658060727897 0.0066557338877258404 -0.010013116800759225 0.0030059678087868223 0.0093101673967120307 -0.0016243326721883024 0.0053759017323108792 -0.0060835790256432718 0.0050253483809427364 -0.0046918165202878299 -0.014656249692730876 -0.0093222413772160086 -0.017072449971354851 0 0.0068922625498471814 -0.0014922246024495886 0.0005463449177375879 0.0092352355002265612 0.0083349219292402268 -0.0043418066157771846 -0.022261078074574472 -0.0021658153838496042 0.010760517889884701 0.0016002613330915482 -0.022209900883543823 0.015675298176035288 0.0055003362108739873 0.0031396275843068983 0.00032589591867837023 -0.01108094760583023 -0.0069579598866403112
leaf_weight=37 127 346 275 547 256 479 232 774 160 166 107 184 251 373 1246 700 243 50 1035 40 328 193 442 99 125 96 878 410 267 24
leaf_count=37 127 346 275 547 256 479 232 774 160 166 107 184 251 373 1246 700 243 50 1035 40 328 193 442 99 125 96 878 410 267 24
internal_value=0 0.00236218 -0.00676555 0.00322929 -0.00639316 0.00173819 -0.00475951 0.00665095 -0.0154867 -0.00588995 0.000888534 -0.0115175 -0.0050355 0.00147192 -7.57765e-05 0.00299838 0.00478485 0 -0.00348239 -0.0114637 -0.00408705 0.00702654 0.00383794 -0.0235829 0.0105983 0.00260178 0.00203361 0.00144595 -0.0088978 -0.019803
internal_weight=0 7760 2730 7068 692 4937 2226 2131 504 1951 4265 344 1785 3830 1879 1951 1459 306 1286 386 435 672 1216 160 672 633 1578 506 499 123
internal_count=10490 7760 2730 7068 692 4937 2226 2131 504 1951 4265 344 1785 3830 1879 1951 1459 306 1286 386 435 672 1216 160 672 633 1578 506 499 123
is_linear=0
shrinkage=0.07


Tree=14
num_leaves=31
num_cat=0
split_feature=3 7 3 3 7 0 2 0 3 3 3 3 1 1 7 2 2 7 3 0 3 6 0 3 2 0 3 1 7 3
split_gain=30.0449 9.43424 8.43109 5.66056 4.86891 4.53706 3.58425 3.38947 2.70873 2.09223 1.80121 1.52975 1.42319 1.2194 1.15011 1.11933 0.806153 0.768154 0.735603 0.703075 0.644904 0.589339 0.5696 0.555357 0.551736 0.536044 0.507041 0.489233 0.413789 0.352548
threshold=1.3541558188500002 38.799979707300004 3.8889061031500005 0.25993112880000008 11.099388327950001 1.6813932547000003 0.65602353745000008 0.13468610475000001 2.0631988078500005 5.6715410246000006 6.287538799950001 0.84499900465000011 0.22379122660000003 0.23838524165000002 4.1134141101000008 0.47220813280000001 2.5597957511500007 22.961711013550005 4.5076682690000007 0.43239344095000004 3.0355648096000003 3.9940680627000003 0.055403619650000006 7.9866542037500006 1.9119016754500002 3.6457775136000001 2.9578305690500004 0.17980723210000002 16.702359514650002 2.7147950501500007
decision_type=2 2 2 2 2 2 2 2 2 2 2 2 2 2 2 2 2 2 2 2 2 2 2 2 2 2 2 2 2 2
left_child=3 2 4 15 7 9 11 -2 19 13 17 22 24 -4 -13 -1 21 -7 -3 -9 -6 -8 -5 -11 29 -12 -14 -24 -22 -10
right_child=1 18 5 6 20 10 16 8 12 23 25 14 26 -15 -16 -17 -18 -19 -20 -21 28 -23 27 -25 -26 -27 -28 -29 -30 -31
leaf_value=-0.027012063591751494 0.0071457996889562883 -0.016602022638544441 0.0089995184580329811 0 -0.011207014482370974 0.0007201688390363573 -0.0010793231481182699 -0.0010198201388311964 0.00098828907853413302 0.0083769333422838588 0.0052417830989464446 -0.0053076177922518463 -0.00090072675113445826 0.0038933245999090483 -0.013181577922273004 -0.012874473811236294 0.0055598561460546295 -0.00406115138393806 -0.0072986857315073869 -0.0045967612690060566 -0.0012486747629928256 -0.0088531184264910284 -0.014379051372995682 0.013925729960547356 0.0074616578976136527 7.8036980079272523e-05 0.0014505478730500343 -0.0061057424911142646 -0.00777290040993283 0.0043613148679919108
leaf_weight=89 374 112 330 26 153 695 292 715 390 488 586 599 906 1148 129 79 65 212 132 508 133 66 344 184 173 152 869 75 117 349
leaf_count=89 374 112 330 26 153 695 292 715 390 488 586 599 906 1148 129 79 65 212 132 508 133 66 344 184 173 152 869 75 117 349
internal_value=0 0.00167211 0.00206952 -0.00834431 6.84644e-05 0.00452247 -0.00699136 0.000775226 0.000147964 0.006651 0.00169793 -0.00899414 0.00140784 0.00508077 -0.00679902 -0.0207807 -0.00127205 -0.000320228 -0.011856 -0.00256282 -0.00727091 -0.00270801 -0.012428 0.0100004 0.00366052 0.0042731 0.000210968 -0.0130652 -0.00458201 0.00267596
internal_weight=0 8726 8482 1764 4687 3795 1596 4284 3910 2150 1645 1173 2687 1478 728 168 423 907 244 1223 403 358 445 672 912 738 1775 419 250 739
internal_count=10490 8726 8482 1764 4687 3795 1596 4284 3910 2150 1645 1173 2687 1478 728 168 423 907 244 1223 403 358 445 672 912 738 1775 419 250 739
is_linear=0
shrinkage=0.07


Tree=15
num_leaves=31
num_cat=0
split_feature=3 3 7 0 2 3 3 0 0 0 7 7 5 3 3 0 0 3 3 0 2 3 3 0 7 7 4 0 5 0
split_gain=26.2662 8.08697 9.49741 5.9546 4.58781 3.90744 3.74256 2.66359 1.66411 1.64752 1.60713 1.29706 1.04147 1.01006 0.974379 1.32989 0.890298 0.706578 0.684915 0.639905 0.592089 0.579418 0.525777 0.49292 0.479489 0.456682 0.378421 0.35309 0.468101 0.333686
threshold=1.1446801598500003 4.5384210790000008 16.190468552650003 2.3871321090500004 1.7049745995000001 2.1588536276500006 0.25993112880000008 0.050057225000000004 0.61472784130000013 0.74129693310000011 4.9104154481500011 38.799979707300004 0.20660372565000004 7.0320435646000012 0.6134184008500001 0.5045854594000001 0.17452677600000002 3.4017252943500007 6.7884365529500004 0.11326799495000002 3.3484052011500007 2.9356960247500008 1.6628779564000002 0.059993224550000009 33.698606927300006 9.4406967692500015 1.5367439562000003 0.20913230335000002 1.2490650700500001 1.1395714175500002
decision_type=2 2 2 2 2 2 2 2 2 2 2 2 2 2 2 2 2 2 2 2 2 2 2 2 2 2 2 2 2 2
left_child=6 2 4 9 5 10 12 -8 19 -3 16 18 -1 -11 26 27 -2 29 -5 -7 -6 -21 -18 -14 -4 -19 -9 28 -16 -10
right_child=1 3 24 11 20 8 7 14 17 13 -12 -13 23 -15 15 -17 22 25 -20 21 -22 -23 -24 -25 -26 -27 -28 -29 -30 -31
leaf_value=-0.026518232990304629 0.001890259698780582 0.010492249607210468 -0.0082481274889474078 -0.00085066344464666507 0.0047703952023291033 0.0086786635227744362 0.0011933270312080055 -0.013792915676315317 -0.00038943254644204997 0.0042225600281153427 -0.0069018416913324762 -0.0068410572986756495 -0.0055988159768943059 0.0085833912523445299 -0.0064197919933268663 -0.014973247253293681 -0.0038058472475941047 0.0027170487160390311 0.0031297640583513634 0.0013164416448290146 0.010717745880155189 0.0048404048721150264 -0.00076895810891535322 -0.01897923324008783 -0.014830892313929167 -7.2294798455151588e-05 -0.00063235424560211277 -0.008047957817728945 -0.0005472885463619605 -0.0035504553054819228
leaf_weight=75 271 418 254 491 520 115 130 250 715 1253 364 127 48 393 182 110 662 567 352 651 133 432 603 45 136 489 23 289 150 242
leaf_count=75 271 418 254 491 520 115 130 250 715 1253 364 127 48 393 182 110 662 567 352 651 133 432 603 45 136 489 23 289 150 242
internal_value=0 0.00130492 -0.000142258 0.00426338 0.000561514 -0.000130992 -0.00931853 -0.00776989 0.0013434 0.00639046 -0.00265956 -0.000190529 -0.0193552 0.00530628 -0.00900018 -0.00743285 -0.00160865 7.82712e-05 0.000728353 0.00341077 0.00608892 0.00278676 -0.00241356 -0.0128259 -0.0107231 0.0013591 -0.0129406 -0.00598447 -0.0039774 -0.00126192
internal_weight=0 9188 6154 3034 5764 5111 1302 1134 3211 2064 1900 970 168 1646 1004 731 1536 2013 843 1198 653 1083 1265 93 390 1056 273 621 332 957
internal_count=10490 9188 6154 3034 5764 5111 1302 1134 3211 2064 1900 970 168 1646 1004 731 1536 2013 843 1198 653 1083 1265 93 390 1056 273 621 332 957
is_linear=0
shrinkage=0.07


Tree=16
num_leaves=31
num_cat=0
split_feature=3 7 3 3 3 2 2 2 0 1 7 3 0 7 3 3 3 3 3 3 0 0 0 3 0 1 2 0 3 3
split_gain=22.9468 7.70419 5.71228 5.63897 3.49766 3.28425 3.07865 2.1049 2.02157 1.77407 1.61686 1.57925 1.21803 1.13413 1.06249 0.848757 0.808691 0.649234 0.576584 0.537735 0.532308 0.48216 0.442974 0.42856 0.425207 0.41791 0.361581 0.342311 0.3574 0.313616
threshold=1.6415265480500001 24.524217379750002 0.46537126955000008 4.9146791524000006 6.7884365529500004 1.9119016754500002 1.0624929828000003 1.3272755430000001 0.92781077530000011 0.11185723265000001 4.1553522010500012 2.7147950501500007 1.7270427547000002 8.6888344907500024 1.0275466522500001 4.7135527711500016 9.0117721252500029 2.5650909891500002 0.14798580900000005 9.5762108160000015 0.12482817185000002 1.9521038808500002 0.055403619650000006 1.1446801598500003 0.081419946650000005 0.43518792265000006 0.12975983905000002 0.74129693310000011 3.7175839747000006 7.9866542037500006
decision_type=2 2 2 2 2 2 2 2 2 2 2 2 2 2 2 2 2 2 2 2 2 2 2 2 2 2 2 2 2 2
left_child=2 3 7 5 15 9 10 18 29 17 14 13 27 -11 22 -3 21 26 -1 -6 -16 -10 -4 -12 -8 -24 -2 -13 -29 -5
right_child=1 4 6 8 19 -7 24 -9 16 11 23 12 -14 -15 20 -17 -18 -19 -20 -21 -22 -23 25 -25 -26 -27 -28 28 -30 -31
leaf_value=-0.026762454689100938 0.0056494827448789562 -0.011379630682825813 0 0.0084643165273492315 0 0.0063941806387972028 0.0045002687431316682 -0.0048592561824409592 0.0050470643233106191 -0.0011691239046008395 -0.0156740423204734 0.0029640824044137749 -0.0024764669735351541 -0.0081758101120089684 0.0014441941538262332 -0.0048466375024519698 0.010023442485059302 0.0061744540040190293 -0.015441089030292628 0.0077394139260286467 -0.0036959361128506125 0.0022865867961923492 -0.0082208929212455213 -0.0081474241025404938 -0.00036768745898681541 0 0.00056327892587977602 -0.00021259408623697652 0.0019788814667745171 0.015183883458375931
leaf_weight=54 98 261 40 380 178 538 130 96 786 1325 94 765 389 130 93 239 126 317 186 56 727 731 501 196 205 30 374 587 781 77
leaf_count=54 98 261 40 380 178 538 130 96 786 1325 94 765 389 130 93 239 126 317 186 56 727 731 501 196 205 30 374 587 781 77
internal_value=0 0.00174411 -0.00610583 0.00242864 -0.00506558 0.0011962 -0.00464644 -0.0146539 0.00550811 0.000594747 -0.0058756 0 0.00105269 -0.00184326 -0.00479268 -0.00839686 0.00428572 0.00362689 -0.0182801 0.0017534 -0.0030276 0.00376301 -0.00720488 -0.0108285 0.00131241 -0.00774005 0.00176762 0.00172913 0.000987364 0.00974967
internal_weight=0 8138 2352 7404 734 5304 2016 336 2100 4766 1681 3977 2522 1455 1391 500 1643 789 240 234 820 1517 571 290 335 531 472 2133 1368 457
internal_count=10490 8138 2352 7404 734 5304 2016 336 2100 4766 1681 3977 2522 1455 1391 500 1643 789 240 234 820 1517 571 290 335 531 472 2133 1368 457
is_linear=0
shrinkage=0.07


Tree=17
num_leaves=31
num_cat=0
split_feature=3 7 3 3 7 0 1 2 2 7 3 3 3 3 0 0 2 4 3 0 0 3 7 2 3 1 3 2 3 0
split_gain=19.9626 6.95411 5.35864 4.07681 3.60147 2.74645 2.60319 2.5922 1.86308 1.59346 1.39821 1.03013 0.934154 0.904898 0.752465 0.749969 0.681518 0.664636 0.618833 0.5926 0.550022 0.51795 0.443816 0.378928 0.348482 0.323814 0.317706 0.309285 0.30624 0.262438
threshold=1.7550730320500001 36.253197342900002 0.51397030585000014 4.7444979616500005 15.500877678500002 1.9850161213500004 0.080199639350000004 0.84746789955000013 1.3272755430000001 7.352913032850001 2.9911818680000004 1.0275466522500001 7.9866542037500006 7.1355219171500002 0.8362073858000002 0.92781077530000011 0.15107821655000003 0.33085724260000005 7.8679601461000006 0.059993224550000009 0.64200518895000014 2.9578305690500004 22.961711013550005 2.9481717150000004 0.14798580900000005 0.43518792265000006 4.0451985498000012 2.3505727229000004 2.2461049188000004 0.050057225000000004
decision_type=2 2 2 2 2 2 2 2 2 2 2 2 2 2 2 2 2 2 2 2 2 2 2 2 2 2 2 2 2 2
left_child=2 3 8 4 6 12 21 9 17 11 15 25 20 26 -12 28 -13 -1 22 -9 -5 27 -7 -21 -10 29 -3 -2 -8 -4
right_child=1 13 7 5 -6 18 10 19 24 -11 14 16 -14 -15 -16 -17 -18 -19 -20 23 -22 -23 -24 -25 -26 -27 -28 -29 -30 -31
leaf_value=-0.024016972687381968 0.0029657176454787101 -0.01538069153133827 0 0.0089828267097332055 -0.006156624984856615 0.0018947975549475082 -0.001181090057502417 0.005073176635793963 -0.010729106830122572 -0.013049457632591877 0.0035668376116173703 0 0.010891601898324573 0 0.00080376931288415985 -0.0040901955402481514 -0.0041613780723608398 -0.013480525044995983 0.0050798301715393266 -0.0018019034665208199 0.0046953723279623489 0.0088314417950969837 -0.0013653342390487254 0.0046489824081904123 -0.00046730951967406767 0 -0.0078555636698516406 0.0085328215156693643 0.00078661178092667933 -0.007885924558101165
leaf_weight=65 423 79 27 231 322 614 673 113 30 127 887 262 225 42 1251 263 830 210 221 294 1027 194 283 49 73 29 164 79 908 495
leaf_count=65 423 79 27 231 322 614 673 113 30 127 887 262 225 42 1251 263 830 210 221 294 1027 194 283 49 73 29 164 79 908 495
internal_value=0 0.00173976 -0.00532898 0.0021497 0.000962481 0.00440502 0.00146747 -0.00397514 -0.0131164 -0.00519208 0.000756642 -0.00454212 0.0063977 -0.00894787 0.00198283 -0.000627089 -0.0031787 -0.0162255 0.00169916 0.000594977 0.0055383 0.00543375 0.000788201 -0.000676267 -0.00413579 -0.00711716 -0.0105901 0.00398126 -6.72366e-06 -0.00751716
internal_weight=0 7886 2604 7601 5000 2601 4678 2226 378 1770 3982 1643 1483 285 2138 1844 1092 275 1118 456 1258 696 897 343 103 551 243 502 1581 522
internal_count=10490 7886 2604 7601 5000 2601 4678 2226 378 1770 3982 1643 1483 285 2138 1844 1092 275 1118 456 1258 696 897 343 103 551 243 502 1581 522
is_linear=0
shrinkage=0.07


Tree=18
num_leaves=31
num_cat=0
split_feature=3 7 3 0 0 3 7 3 0 3 3 3 0 7 0 0 2 2 3 0 3 2 3 0 2 3 2 1 3 3
split_gain=17.5285 5.38762 6.03549 3.15418 2.75004 2.50856 2.41953 2.43464 2.13708 1.25277 1.01314 0.91029 0.85716 0.708778 0.692331 0.650994 0.639722 0.618204 0.560408 0.544804 0.48829 0.431924 0.414552 0.380653 0.366989 0.365144 0.346083 0.328304 0.311044 0.282322
threshold=1.1446801598500003 38.799979707300004 3.8626191996000006 0.20913230335000002 1.4619322469500002 0.20746455585000004 11.099388327950001 1.9861507061000003 0.043626162350000004 6.6756796973000005 6.8705064295500007 0.51397030585000014 0.55394469530000012 19.230879255350001 0.61472784130000013 0.6078278438500001 1.8874032606500002 2.4457173351000008 2.8468346132500004 0.0093340579000000014 7.1355219171500002 0.16503071390000004 2.6307947589500005 3.1374190108000004 0.12975983905000002 1.8996169556000002 1.6843876173000003 0.39619430490000007 3.0355648096000003 5.1995143833000013
decision_type=2 2 2 2 2 2 2 2 2 2 2 2 2 2 2 2 2 2 2 2 2 2 2 2 2 2 2 2 2 2
left_child=5 2 3 17 10 19 7 21 -7 13 15 16 26 29 22 -4 -10 25 -8 -1 -3 -5 24 -11 -9 -2 27 -13 -16 -6
right_child=1 20 4 6 9 8 18 14 11 23 -12 12 -14 -15 28 -17 -18 -19 -20 -21 -22 -23 -24 -25 -26 -27 -28 -29 -30 -31
leaf_value=-0.0037274681342144814 0.0010367374911150306 -0.010340021038079792 0.0072671970219796225 0 3.3624110656735838e-05 0.0018053475385612894 -0.010175374679184005 0.0061004979290171634 -0.013473717512205356 0.0053407849844103496 0.0094342074006800725 -0.0062143386602565454 -0.013516659515149807 -0.0020301375149477585 -0.0012715032273827788 0.0036643815611708702 0 0.0087920704093948018 -0.0038394648127485463 -0.019864237521519411 0 -0.0034712893218344521 0.003278288986020954 0.0011486911611904487 0 0.0048320201812963775 0 0 0.00078457424595539582 0.002680600084769405
leaf_weight=24 327 214 392 216 452 122 134 54 183 436 289 672 87 420 732 1194 21 125 269 102 30 1079 633 203 578 284 47 44 678 449
leaf_count=24 327 214 392 216 452 122 134 54 183 436 289 672 87 420 732 1194 21 125 269 102 30 1079 633 203 578 284 47 44 678 449
internal_value=0 0.00106268 0.00134948 -0.000213083 0.00344939 -0.00761569 -0.000939619 -0.000396131 -0.00651363 0.00156525 0.0053816 -0.00754296 -0.00635625 0.000277161 0.000789494 0.004599 -0.0121444 0.00400858 -0.00611989 -0.0173461 -0.00916323 -0.00289926 0.00198474 0.00411857 0.000578386 0.0029154 -0.00544805 -0.00583079 -0.000233191 0.0014304
internal_weight=0 9188 8944 5109 3835 1302 4373 3970 1176 1960 1875 1054 850 1321 2675 1586 204 736 403 126 244 1295 1265 639 632 611 763 716 1410 901
internal_count=10490 9188 8944 5109 3835 1302 4373 3970 1176 1960 1875 1054 850 1321 2675 1586 204 736 403 126 244 1295 1265 639 632 611 763 716 1410 901
is_linear=0
shrinkage=0.07


Tree=19
num_leaves=31
num_cat=0
split_feature=3 7 3 3 0 0 0 2 3 2 3 7 3 0 2 0 3 3 3 2 6 1 3 2 3 3 7 5 2 3
split_gain=15.3094 4.94447 4.46503 2.95284 2.64727 2.17228 1.84772 1.7256 1.69658 1.22615 0.989128 0.828589 0.820988 0.77036 0.575268 0.532448 0.498054 0.45404 0.428532 0.395226 0.528104 0.391017 0.383964 0.380748 0.341408 0.339646 0.337696 0.322305 0.261533 0.259656
threshold=1.3740034601500002 33.698606927300006 4.2201018943500008 0.41263388700000009 0.23233520380000003 1.1259434798500003 1.4903665471000003 0.65602353745000008 2.5381896602000005 1.3272755430000001 9.0117721252500029 3.2296037101000006 6.9503624130000015 2.6404826005500004 0.15107821655000003 0.61472784130000013 2.5650909891500002 6.4127999044000008 5.4969993170000011 2.8438111231500005 4.1688793107000004 0.058183839100000002 4.0451985498000012 1.7529464879000003 0.65851395700000015 3.3584868771000003 7.4859715376000011 0.20660372565000004 0.065827568950000012 0.14798580900000005
decision_type=2 2 2 2 2 2 2 2 2 2 2 2 2 2 2 2 2 2 2 2 2 2 2 2 2 2 2 2 2 2
left_child=3 2 4 9 16 17 8 11 14 27 13 24 22 18 -6 -10 21 -4 -7 20 -9 -2 -3 26 -5 -8 -16 -1 -26 -11
right_child=1 12 5 7 6 10 25 19 15 29 -12 -13 -14 -15 23 -17 -18 -19 -20 -21 -22 -23 -24 -25 28 -27 -28 -29 -30 -31
leaf_value=-0.020632077967748047 0.0040541200766787801 -0.013665747111102185 0.0052889155478851946 -0.0080502248604898356 0.0021881392241605577 0.0013462996466933341 -0.0067720153305229356 0 0.0029641144582202039 -0.0091147073209285733 0.0078175399478066683 -0.0098080033402381302 0 -0.00015093179465392248 -0.0018045766063789824 0.00055944948114385648 0.0075074338435841071 0.0094670412576559823 0.0039176277391557244 0.0050965192146124501 -0.0071324494415694068 0 -0.0063078806466246784 0.0016685570673964836 0 -0.002423641431683791 -0.006091654584198968 -0.011924157145239388 -0.0043659030112430282 0
leaf_weight=76 367 83 773 168 177 727 211 279 777 30 157 249 58 596 1422 1304 194 231 773 51 64 137 185 117 75 280 115 137 626 51
leaf_count=76 367 83 773 168 177 727 211 279 777 30 157 249 58 596 1422 1304 194 231 773 51 64 137 185 117 75 280 115 137 626 51
internal_value=0 0.00120754 0.00154432 -0.00587588 0.000236765 0.00357068 -0.000383603 -0.00455413 0.000106982 -0.0124354 0.00231446 -0.00596338 -0.00721222 0.00186886 -0.0014277 0.00149094 0.00425034 0.00631994 0.00271806 -0.000377611 -0.00139563 0.00285773 -0.00884782 -0.00185697 -0.00478121 -0.00443486 -0.00217088 -0.0153598 -0.0038979 -0.00388098
internal_weight=0 8684 8358 1806 5101 3257 4403 1512 3912 294 2253 1118 326 2096 1831 2081 698 1004 1500 394 343 504 268 1654 869 491 1537 213 701 81
internal_count=10490 8684 8358 1806 5101 3257 4403 1512 3912 294 2253 1118 326 2096 1831 2081 698 1004 1500 394 343 504 268 1654 869 491 1537 213 701 81
is_linear=0
shrinkage=0.07


Tree=20
num_leaves=31
num_cat=0
split_feature=3 7 3 0 7 2 5 0 3 7 2 0 3 3 5 3 3 0 1 3 3 3 3 2 1 2 3 0 7 0
split_gain=13.4279 4.14026 4.58361 2.67219 2.63865 2.10879 2.03154 1.65607 1.52617 1.42684 0.997575 0.976408 0.800146 0.651226 0.646231 0.637225 0.553113 0.686996 0.401815 0.362914 0.329024 0.318978 0.315607 0.31041 0.261936 0.253237 0.238684 0.232063 0.231274 0.219504
threshold=1.1446801598500003 41.560187634800009 3.1680969646500006 0.74129693310000011 9.1620360318500023 1.1844069811500002 0.46797898055000003 0.094139874450000008 5.6191132715000007 16.702359514650002 0.13949672540000002 2.7556870759500005 1.6628779564000002 0.51397030585000014 3.1710059077000001 6.2299974483500007 0.084488366700000025 0.021686434100000002 0.083271964150000002 0.20746455585000004 1.9199582304000002 9.2548157769500019 4.0451985498000012 2.3927815766000005 0.42027608060000005 1.6843876173000003 9.5762108160000015 0.12482817185000002 68.220535616350006 0.029079823900000003
decision_type=2 2 2 2 2 2 2 2 2 2 2 2 2 2 2 2 2 2 2 2 2 2 2 2 2 2 2 2 2 2
left_child=6 2 4 15 5 10 16 19 9 22 20 21 27 -9 24 18 -1 -18 -4 -8 -2 -10 -5 -7 25 -15 -13 -12 -3 -21
right_child=1 28 3 8 -6 23 7 13 11 -11 12 26 -14 14 -16 -17 17 -19 -20 29 -22 -23 -24 -25 -26 -27 -28 -29 -30 -31
leaf_value=-0.02283335969154094 0.00028836763422185617 -0.0068446329675409152 0.0081751459290427073 0.00016911888635308086 -0.0068062156988051648 0.0022535746752319506 -0.0067621915237719415 -0.012194317874005612 0.0040558154695636154 -0.0029693922884553108 0 3.8926491768523399e-06 -0.00055711763168479582 -0.0056742284688880941 -0.013451301126634001 0.010619964067099823 0 -0.012478699922878174 0.0039967832201297316 0.0045960574488874461 0.0048054150152044414 0.008715988240008684 0.0021252945258447889 0.0060674025709847677 0 0 0.0060469456992703627 -0.0037577968137334269 -0.015321496334381221 -0.00015483576867084665
leaf_weight=37 219 163 188 747 309 422 36 119 934 448 59 439 1966 591 61 135 26 153 783 57 168 114 1161 207 37 29 37 648 41 156
leaf_count=37 219 163 188 747 309 422 36 119 934 448 59 439 1966 591 61 135 26 153 783 57 168 114 1161 207 37 29 37 648 41 156
internal_value=0 0.000930099 0.00116091 0.00257939 -0.000590597 -5.09852e-05 -0.00666563 -0.00532243 0.00168833 0.000536295 -0.000828446 0.00342336 -0.00132642 -0.00681546 -0.00582649 0.00564205 -0.0130949 -0.0106908 0.00487787 -2.25622e-05 0.00243013 0.00462954 0.00139612 0.00361997 -0.00501201 -0.00535626 0.000620685 -0.00336664 -0.00889145 0.000787892
internal_weight=0 9188 8984 4986 3998 3689 1302 1086 3880 2356 3060 1524 2673 837 718 1106 216 179 971 249 387 1048 1908 629 657 620 476 707 204 213
internal_count=10490 9188 8984 4986 3998 3689 1302 1086 3880 2356 3060 1524 2673 837 718 1106 216 179 971 249 387 1048 1908 629 657 620 476 707 204 213
is_linear=0
shrinkage=0.07


Tree=21
num_leaves=31
num_cat=0
split_feature=3 3 7 2 0 3 5 0 7 2 0 3 5 3 3 3 7 2 3 0 7 0 0 0 3 3 7 3 5 0
split_gain=11.6777 3.67875 4.96274 2.6457 2.32994 1.89345 1.75204 1.45046 0.975465 0.945757 0.632123 0.577244 0.57849 0.565656 0.53544 0.501482 0.606468 0.462814 0.457044 0.573801 0.415762 0.395497 0.363689 0.298631 0.316898 0.284584 0.281688 0.271562 0.222203 0.217978
threshold=1.1446801598500003 4.9146791524000006 16.444449161400005 1.6461509769000002 1.9850161213500004 1.9861507061000003 0.46797898055000003 0.14664090980000002 4.6454559420500008 0.13505189775000001 3.3133053709000007 0.65851395700000015 3.0013613617500003 3.1129046264500002 8.7745569825500009 3.1129046264500002 7.2316376534500009 3.3484052011500007 0.14798580900000005 0.029079823900000003 6.9635868826500014 0.12947864800000003 0.64200518895000014 0.050057225000000004 0.20746455585000004 6.7884365529500004 41.560187634800009 0.78097282550000013 12.758101954450003 0.17452677600000002
decision_type=2 2 2 2 2 2 2 2 2 2 2 2 2 2 2 2 2 2 2 2 2 2 2 2 2 2 2 2 2 2
left_child=6 2 3 5 14 8 18 23 21 -7 25 -9 -13 -4 22 20 -17 -5 -1 -20 29 -2 -3 24 -8 -6 -12 -25 -15 -11
right_child=1 4 13 17 10 9 7 11 -10 15 26 12 -14 28 -16 16 -18 -19 19 -21 -22 -23 -24 27 -26 -27 -28 -29 -30 -31
leaf_value=-0.018751936136434479 0.0019743202849010844 0.0074855382195107836 -0.011982512429685278 0.0033187608326105725 0.00076242509915085501 0.0058031612589883692 -0.0048500719708229967 -0.011096686415282862 -0.0055409689525486496 0.0031579730991249397 -0.00024575518363771556 -0.0044474325892308519 -0.012757056469445006 -0.00187996806798178 0.0095571253096509816 0.003337537790723251 0.00049385237419544018 0.008198208034477461 0 -0.010925615319706225 -0.0025693371845727456 -0.0016048787889119433 0.0038060542215609446 -0.0046226849454912219 0.0029838027227432813 0.0037508515506371912 -0.0053823768862352626 0 -0.0064983050471820528 -1.750230702396902e-06
leaf_weight=60 159 218 102 645 479 182 29 163 322 113 341 450 59 124 149 550 1348 148 21 135 319 1103 977 169 108 307 71 108 267 1264
leaf_count=60 159 218 102 645 479 182 29 163 322 113 341 450 59 124 149 550 1348 148 21 135 319 1103 977 169 108 307 71 108 267 1264
internal_value=0 0.00086861 0 0.000543805 0.00313341 -1.47428e-06 -0.00621484 -0.00495949 -0.00204574 0.000837541 0.000818666 -0.00699817 -0.00554816 -0.00675533 0.00514462 0.000566605 0.00135477 0.0043177 -0.0122023 -0.00923455 -0.000274163 -0.00109847 0.00453587 -0.00148125 0.000814588 0.00201872 -0.00130085 -0.00286945 -0.00521269 0.000206709
internal_weight=0 9188 6646 6153 2542 5360 1302 1086 1584 3776 1198 672 509 493 1344 3594 1898 793 216 156 1696 1262 1195 414 137 786 412 277 391 1377
internal_count=10490 9188 6646 6153 2542 5360 1302 1086 1584 3776 1198 672 509 493 1344 3594 1898 793 216 156 1696 1262 1195 414 137 786 412 277 391 1377
is_linear=0
shrinkage=0.07


Tree=22
num_leaves=31
num_cat=0
split_feature=3 7 3 3 3 1 0 0 2 7 3 3 0 0 3 0 3 0 3 3 7 3 7 4 2 7 4 0 2 3
split_gain=10.2564 3.55507 2.74072 2.42805 1.7256 1.71397 1.49744 1.26699 0.965753 0.796144 0.75554 0.69111 0.623791 0.587731 0.574066 0.540071 0.460083 0.411842 0.404112 0.338654 0.325211 0.289019 0.265212 0.258468 0.253256 0.243483 0.242184 0.332267 0.213816 0.146115
threshold=1.5517819261500001 24.524217379750002 4.2201018943500008 0.46537126955000008 6.7884365529500004 0.16978655275000001 0.087693805350000015 0.92781077530000011 0.43368536030000004 9.8739504364000013 0.8718854854000001 2.3929706119500005 0.12041204350000002 0.21399727520000003 6.7884365529500004 1.2061138169500003 3.3061641712000003 0.80558032610000008 2.6119251123000002 9.9706294132500002 17.006307154850003 6.4127999044000008 2.9830032709500007 1.5898257872000003 0.11739625780000001 49.243802086250007 1.7458621606000002 0.0093340579000000014 0.40327279750000006 3.3584868771000003
decision_type=2 2 2 2 2 2 2 2 2 2 2 2 2 2 2 2 2 2 2 2 2 2 2 2 2 2 2 2 2 2
left_child=3 2 5 8 16 12 28 21 -1 10 22 17 -2 -12 20 29 -3 -7 -14 -6 -9 -4 23 -8 -15 -18 27 -10 -5 -13
right_child=1 4 7 6 19 11 9 14 26 -11 13 15 18 24 -16 -17 25 -19 -20 -21 -22 -23 -24 -25 -26 -27 -28 -29 -30 -31
leaf_value=-0.013783567484334984 0.0056408625269959425 -0.011566438416362202 0.0048056790786425371 -0.0011235750383125646 0 -0.0010834825291832512 -0.0057111792658026076 0.0021966559062098698 0 -0.011982137510247196 0 0.00031311809302114453 0.00059570000267020543 0 0.0043386774198153665 -0.0014659146079508709 -0.003432955681650644 -0.0048178739162919766 0.0034727506278450899 0.0063890512567013509 0 0.0090070406248307106 -0.011116830122065607 0 -0.0040526013992300391 -0.0085418590455410195 0 -0.0081230971374892987 0.0029075870611739128 0.0017855119620831107
leaf_weight=173 273 76 579 68 185 762 297 1211 30 67 306 959 729 103 569 613 335 209 423 49 425 161 74 27 719 89 22 111 187 659
leaf_count=173 273 76 579 68 185 762 297 1211 30 67 306 959 729 103 569 613 335 209 423 49 425 161 74 27 719 89 22 111 187 659
internal_value=0 0.00111127 0.00156856 -0.00427958 -0.0035108 0.000488215 -0.00322765 0.00324216 -0.00985686 -0.00403767 -0.00364299 -0.0003917 0.00251452 -0.00261062 0.00234718 0.000259223 -0.00585863 -0.00195937 0.00171288 0.00120677 0.00161175 0.00581435 -0.00639303 -0.00509809 -0.00358552 -0.00467044 -0.00525981 -0.00635598 0.0015581 0.000956077
internal_weight=0 8306 7572 2184 734 4627 1848 2945 336 1593 1526 3202 1425 1128 2205 2231 500 971 1152 234 1636 740 398 324 822 424 163 141 255 1618
internal_count=10490 8306 7572 2184 734 4627 1848 2945 336 1593 1526 3202 1425 1128 2205 2231 500 971 1152 234 1636 740 398 324 822 424 163 141 255 1618
is_linear=0
shrinkage=0.07


Tree=23
num_leaves=31
num_cat=0
split_feature=3 7 3 3 2 0 3 5 0 0 2 2 3 7 7 7 7 2 3 1 2 3 1 0 2 3 7 5 3 3
split_gain=8.95619 3.3767 2.76273 1.90636 1.80391 1.49896 1.4829 1.16429 1.07272 1.04547 0.910962 0.683276 0.636728 0.525523 0.505932 0.498463 0.371927 0.37004 0.321847 0.315749 0.302856 0.29243 0.257276 0.213528 0.184698 0.179569 0.177449 0.157251 0.155589 0.155152
threshold=1.8996169556000002 24.524217379750002 0.84499900465000011 5.6191132715000007 2.3927815766000005 0.41634349085000005 6.5554462967500013 0.20660372565000004 0.064270833400000019 0.42231963215000007 0.89567891325000015 1.0839508139500003 3.2826013303500003 13.285920045550002 8.5241766585000018 7.4323393237000008 68.220535616350006 0.45277449045000001 10.720002479050001 0.021611221600000004 0.16503071390000004 9.2548157769500019 0.2769559551500001 0.90278911615000013 2.1001302625000005 0.084488366700000025 2.9830032709500007 2.2407628013000003 3.2826013303500003 2.6719107311500001
decision_type=2 2 2 2 2 2 2 2 2 2 2 2 2 2 2 2 2 2 2 2 2 2 2 2 2 2 2 2 2 2
left_child=2 3 7 4 9 10 16 25 -9 19 20 23 14 17 -11 -7 28 -14 -8 -2 -4 -13 24 -5 26 -1 -10 -22 -3 -21
right_child=1 6 5 11 -6 15 18 8 22 12 -12 21 13 -15 -16 -17 -18 -19 -20 29 27 -23 -24 -25 -26 -27 -28 -29 -30 -31
leaf_value=-0.021075883475282501 0.0056650404877487941 -0.0091757363765582189 0 0.010275325961100559 0.0058423279286199262 -0.0034254087072001123 0 0 -0.0066756822247775712 -0.0001916969944720069 0.0023884572164756214 0.0024873877551493746 0.0048014226822847674 -0.00088536446777757148 -0.0035997514257460907 -0.0085817674737630866 -0.013100544333457949 0.0011897312063176612 0.0072092716058935321 0.00091349553934380633 -0.0029688904119847211 0.0068760144961214518 0 0.0051492906043544041 0 -0.010236177122901365 -0.012270360982957718 0 -0.0038460696305264723 0.0032017790665819085
leaf_weight=31 185 57 354 105 375 548 219 150 403 1414 360 934 171 522 264 147 40 1714 34 425 581 107 28 268 20 93 73 110 382 376
leaf_count=31 185 57 354 105 375 548 219 150 403 1414 360 934 171 522 264 147 40 1714 34 425 581 107 28 268 20 93 73 110 382 376
internal_value=0 0.00125245 -0.00332174 0.00174134 0.00112885 -0.00194265 -0.00323355 -0.0068632 -0.00553637 0.000766481 -0.000570058 0.00405083 0.000253779 0.000996295 -0.000769603 -0.00461675 -0.00554538 0.00155451 0.00086672 0.00281961 -0.00165625 0.00300572 -0.00703256 0.00677994 -0.00740206 -0.0135106 -0.00768075 -0.0025092 -0.00469753 0.00207504
internal_weight=0 7592 2898 6860 5446 2100 732 798 674 5071 1405 1414 4085 2407 1678 695 479 1885 253 986 1045 1041 524 373 496 124 476 691 439 801
internal_count=10490 7592 2898 6860 5446 2100 732 798 674 5071 1405 1414 4085 2407 1678 695 479 1885 253 986 1045 1041 524 373 496 124 476 691 439 801
is_linear=0
shrinkage=0.07


Tree=24
num_leaves=31
num_cat=0
split_feature=3 3 7 0 2 3 5 0 7 2 3 0 0 3 0 3 3 2 0 3 7 5 3 7 2 6 2 3 7 0
split_gain=7.90604 2.69356 3.5721 1.91134 1.88338 1.27545 1.17378 0.833143 0.741547 0.727169 0.625709 0.504426 0.418365 0.377574 0.350071 0.349736 0.314519 0.299052 0.255389 0.289083 0.25415 0.270534 0.225442 0.17538 0.15978 0.155691 0.154418 0.12676 0.125518 0.118047
threshold=1.0275466522500001 4.5384210790000008 16.190468552650003 2.6404826005500004 1.7529464879000003 2.1588536276500006 0.46797898055000003 0.12947864800000003 4.6454559420500008 0.27417189920000007 9.2548157769500019 0.87814990485000011 0.17452677600000002 6.9503624130000015 0.0093340579000000014 2.6119251123000002 1.6415265480500001 3.3484052011500007 1.1931360305500003 3.3779542669000002 3.4502797246500001 1.7616393341500001 0.14798580900000005 23.472938779950002 0.40327279750000006 6.2499953328500011 0.13949672540000002 5.6191132715000007 49.243802086250007 0.20913230335000002
decision_type=2 2 2 2 2 2 2 2 2 2 2 2 2 2 2 2 2 2 2 2 2 2 2 2 2 2 2 2 2 2
left_child=6 2 4 10 5 8 14 24 12 -7 11 -3 -2 23 -1 -4 26 -6 19 29 21 -9 -16 -5 -8 -21 -14 -13 -17 -11
right_child=1 3 15 13 17 9 7 20 -10 18 -12 27 16 -15 22 28 -18 -19 -20 25 -22 -23 -24 -25 -26 -27 -28 -29 -30 -31
leaf_value=0 0.001425676393720399 0.0050789425145988405 -0.012897262484249144 0 0.0027928119439234638 0.0035514474756297861 -0.0034441601953268141 -0.0056916407942939461 -0.0039970862145257136 0.0021830090329227649 0.0081345061257265382 0.0014682830845263758 0 0.0013379273321633004 -0.017637961663837944 -0.0041915831355361886 0 0.0070550970803451496 -0.00085618206485420635 0.0038241198538815813 -0.010008260069089463 0 -0.0089673342245035152 -0.0027804496874252707 0 0.0010644553930234742 -0.0027964928458758097 0.0030261360599844788 -0.0091242879461497072 -0.0001429942569488182
leaf_weight=20 315 515 54 197 507 387 110 403 474 116 147 730 142 303 49 274 567 140 688 167 103 60 136 305 211 616 593 837 70 1254
leaf_count=20 315 515 54 197 507 387 110 403 474 116 147 730 142 303 49 274 567 140 688 167 103 60 136 305 211 616 593 837 70 1254
internal_value=0 0.000643428 -0.00016456 0.00236131 0.000252495 -0.000168694 -0.00564917 -0.00440875 -0.00152601 0.000688849 0.00342133 0.00305494 -0.000758361 -0.000486891 -0.0106748 -0.00659208 -0.00134052 0.00382329 0.000274267 0.00066802 -0.00606227 -0.00503325 -0.0116423 -0.00172777 -0.00127512 0.00174244 -0.00229783 0.00234507 -0.00539882 2.85712e-06
internal_weight=0 9398 6364 3034 5966 5319 1092 887 2091 3228 2229 2082 1617 805 205 398 1302 647 2841 2153 566 463 185 502 321 783 735 1567 344 1370
internal_count=10490 9398 6364 3034 5966 5319 1092 887 2091 3228 2229 2082 1617 805 205 398 1302 647 2841 2153 566 463 185 502 321 783 735 1567 344 1370
is_linear=0
shrinkage=0.07


Tree=25
num_leaves=31
num_cat=0
split_feature=3 7 3 0 0 3 0 3 7 2 2 0 2 7 3 1 0 4 3 0 3 3 2 2 2 7 3 7 2 2
split_gain=6.91659 2.29441 2.39647 1.63205 1.29473 1.18267 1.07934 1.06486 0.985913 0.928412 0.626784 0.562711 0.425705 0.588784 0.5687 0.356877 0.302483 0.294128 0.252889 0.251496 0.236119 0.235838 0.203112 0.182928 0.170195 0.16355 0.162897 0.151451 0.149401 0.203462
threshold=1.1446801598500003 41.560187634800009 2.7147950501500007 0.57170666570000017 0.97714979805000013 0.20746455585000004 0.043626162350000004 5.4969993170000011 18.600913769900004 0.97774630890000014 0.15107821655000003 2.8644764739500004 1.9626218607500003 3.1862245905000006 0.65851395700000015 0.026472546200000006 0.0093340579000000014 5.4759657671500017 9.2548157769500019 0.31228154425000004 1.6628779564000002 4.0451985498000012 1.0418079848500001 0.67031629280000016 1.9119016754500002 4.1553522010500012 1.8380246398000002 16.444449161400005 0.45277449045000001 0.059259130250000007
decision_type=2 2 2 2 2 2 2 2 2 2 2 2 2 2 2 2 2 2 2 2 2 2 2 2 2 2 2 2 2 2
left_child=5 2 4 15 9 16 -7 8 21 10 26 18 13 14 -8 -4 -1 -17 22 -11 -12 -5 -9 -23 -25 -22 -2 -6 29 -16
right_child=1 -3 3 7 27 6 12 11 -10 19 20 -13 -14 -15 28 17 -18 -19 -20 -21 25 23 -24 24 -26 -27 -28 -29 -30 -31
leaf_value=-0.00082649839168880146 0.00018908271764132923 -0.0066386453109546851 0.0078973679619455915 8.9447507059667636e-05 -0.003860133071816678 0.0018270063901522397 -0.0066552450391092867 0.0046931762642614359 -0.0031299353917273206 0.0032353404248425541 -0.0025645857776532672 0.00024887088828923687 0.0002772382854107911 -0.0089074134082044003 6.0630590129687007e-05 0.002768188575883416 -0.013373955844355948 0.0065113688025324702 0.0067244952789958807 8.8424283920017931e-07 2.9139894134516664e-05 0.0033810317626063492 0.0021398772173988898 0.00051653120942330181 0.003121604460137263 -0.0014566307723152482 0.0035642305133741403 -0.010023128682270992 0 -0.0037223219377603691
leaf_weight=24 235 204 145 1358 277 122 300 288 352 400 626 451 52 191 43 718 102 171 127 230 542 233 825 913 169 737 144 43 123 345
leaf_count=24 235 204 145 1358 277 122 300 288 352 400 626 451 52 191 43 718 102 171 127 230 542 233 825 913 169 737 144 43 123 345
internal_value=0 0.000663951 0.000837563 0.00169845 -0.000671429 -0.00478744 -0.00400448 0.00112594 0.000312944 -0.000182275 -0.000860547 0.0025389 -0.00474589 -0.00507643 -0.00408787 0.0042419 -0.0115395 0.00356693 0.00331536 0.00216562 -0.00139799 0.000792516 0.00286346 0.00146534 0.000988118 -0.000772278 0.00165616 -0.00490704 -0.00244363 -0.00312266
internal_weight=0 9188 8984 5750 3234 1302 1176 4716 3025 2914 2284 1691 1054 1002 811 1034 126 889 1240 630 1905 2673 1113 1315 1082 1279 379 320 511 388
internal_count=10490 9188 8984 5750 3234 1302 1176 4716 3025 2914 2284 1691 1054 1002 811 1034 126 889 1240 630 1905 2673 1113 1315 1082 1279 379 320 511 388
is_linear=0
shrinkage=0.07


Tree=26
num_leaves=31
num_cat=0
split_feature=3 7 3 3 0 0 7 2 3 7 3 2 1 3 1 4 7 2 1 2 6 3 2 3 6 2 3 7 3 3
split_gain=6.04551 2.10532 1.81184 1.36033 1.27897 1.01298 0.925551 0.917914 0.698801 0.459313 0.415353 0.403829 0.392592 0.373043 0.369053 0.324673 0.316127 0.440796 0.286914 0.254001 0.380285 0.233815 0.203437 0.196088 0.190059 0.192348 0.17974 0.176616 0.172386 0.170687
threshold=1.3740034601500002 33.698606927300006 4.2201018943500008 0.31666738075000006 0.12041204350000002 1.5656628621500002 11.099388327950001 0.65602353745000008 2.5381896602000005 13.440828190600003 7.6414685348500013 0.35298915995000008 0.040962466250000003 4.0840161251500007 0.25368968605000003 8.5154035980500016 3.2608527009500006 0.97774630890000014 0.38636548495000006 2.8438111231500005 3.9940680627000003 0.8718854854000001 0.11739625780000001 9.5762108160000015 2.3584909932000007 0.41515888990000005 3.0866882259500001 20.367677152900004 0.93114086130000018 1.9199582304000002
decision_type=2 2 2 2 2 2 2 2 2 2 2 2 2 2 2 2 2 2 2 2 2 2 2 2 2 2 2 2 2 2
left_child=3 2 4 11 -2 12 8 9 16 18 27 -1 -4 -3 -10 -14 29 -18 21 20 -9 24 -23 -15 25 -5 -8 -7 -22 -6
right_child=1 13 5 7 6 10 26 19 14 -11 -12 -13 15 23 -16 -17 17 -19 -20 -21 28 22 -24 -25 -26 -27 -28 -29 -30 -31
leaf_value=-0.012935324899974513 0.0043429351991284421 -0.009039925059134311 0.0096975291967391977 -0.0046291034899490708 0 0.00093152630501939745 -0.0051134311575313212 0.00011530861519132082 0.0023694791400181519 -0.014568867230166994 0.0032351418725758917 -0.0050746957291002313 0.0027713897197834346 -0.0035859169339154499 0.00036435115890578719 0.0062659549320815133 -0.0017987725350573948 0.00092756692632266322 0 0.0041523321573060526 -0.011556805993119876 0 -0.0034794163606839588 0.0018607836763840171 -0.0085074308847984427 0 -0.0017409104027470376 -0.0007826556619851151 -0.0016039629436272664 0.0032890691624005452
leaf_weight=100 333 88 60 284 362 893 162 289 744 24 325 110 1388 218 1411 190 1277 339 70 58 21 128 521 20 116 29 367 401 56 106
leaf_count=100 333 88 60 284 362 893 162 289 744 24 325 110 1388 218 1411 190 1277 339 70 58 21 128 521 20 116 29 367 401 56 106
internal_value=0 0.000758048 0.000980248 -0.00369316 0.000142014 0.00227157 -0.0001367 -0.00293114 0.000192382 -0.00394177 0.000969382 -0.00915119 0.00351592 -0.00472401 0.00108909 0.00323651 -0.000701289 -0.00118353 -0.00365862 0 -0.000817461 -0.00394447 -0.00286054 -0.00283409 -0.0054211 -0.00405364 -0.00290603 0.00034622 -0.00522747 0.00081432
internal_weight=0 8684 8358 1806 5101 3257 4768 1596 4239 1172 1619 210 1638 326 2155 1578 2084 1616 1148 424 366 1078 649 238 429 313 529 1294 77 468
internal_count=10490 8684 8358 1806 5101 3257 4768 1596 4239 1172 1619 210 1638 326 2155 1578 2084 1616 1148 424 366 1078 649 238 429 313 529 1294 77 468
is_linear=0
shrinkage=0.07


Tree=27
num_leaves=31
num_cat=0
split_feature=3 7 3 3 2 0 3 2 7 2 3 2 7 3 3 6 0 7 3 1 2 2 7 3 0 2 3 2 3 2
split_gain=5.33457 2.03351 1.67919 1.15005 1.21367 0.986897 0.920782 0.673976 0.652706 0.508951 0.500383 0.499795 0.419685 0.431227 0.347699 0.300599 0.288394 0.249026 0.207044 0.174383 0.164573 0.131425 0.127294 0.12171 0.121167 0.11787 0.115673 0.114925 0.103337 0.0984174
threshold=1.8996169556000002 24.524217379750002 0.46537126955000008 5.6191132715000007 2.2150275171000007 0.087693805350000015 5.1611670960500007 0.23578317645000002 8.5241766585000018 1.3272755430000001 0.90937847020000007 0.90386021295000007 15.500877678500002 3.3779542669000002 9.5762108160000015 7.4914597047500004 0.23789334855000002 6.9635868826500014 8.7745569825500009 0.16978655275000001 0.96878402215000003 0.77630263865000015 68.220535616350006 0.14798580900000005 0.050057225000000004 0.64276314745000007 3.2126444157500003 0.19899664930000002 2.6915306043500005 2.3927815766000005
decision_type=2 2 2 2 2 2 2 2 2 2 2 2 2 2 2 2 2 2 2 2 2 2 2 2 2 2 2 2 2 2
left_child=2 3 9 4 7 21 22 26 10 -1 19 -5 13 17 -8 -15 25 20 -13 -7 28 -4 -3 -11 -25 -12 -2 -18 -9 -29
right_child=1 6 5 11 -6 8 14 12 -10 23 16 18 -14 15 -16 -17 27 -19 -20 -21 -22 -23 -24 24 -26 -27 -28 29 -30 -31
leaf_value=-0.0091240527748038102 0.0023949947207105048 -0.0043410636227612142 0 0.006416342673176369 0.0043688354519427659 -0.0051241771087000253 -0.0011131523181778476 -0.000637167662317545 -0.0073456600471399729 -0.0056938911785061165 -0.00090891357125920684 0.0019722434300279506 -0.0019460054516929851 0.0025819178484328929 0.0047627304791240024 0.0006203239952056271 -0.00059799093894822447 -0.0015470080279582226 0.004946136218537474 -0.0006636885467976813 0.0015681397168840518 0.0029165592356199094 -0.010567177446559073 0.0021923583779985519 -0.0038790304113731342 0.0013574817665151625 0.0065812258170917636 -0.0026333398465460088 0.00066731351382139819 0
leaf_weight=240 336 279 127 221 451 334 357 806 136 30 282 1012 369 592 56 1519 322 513 181 93 348 178 40 39 27 187 70 874 442 29
leaf_count=240 336 279 127 221 451 334 357 806 136 30 282 1012 369 592 56 1519 322 513 181 93 348 178 40 39 27 187 70 874 442 29
internal_value=0 0.000967674 -0.00256256 0.00134856 0.000868882 -0.00191509 -0.00250618 0.000538857 -0.00243316 -0.00729113 -0.00208516 0.00314652 0.000280276 0.000491531 -0.000146931 0.00120358 -0.00148136 -0.000188007 0.00248211 -0.00431662 0.000204955 0.00168906 -0.0053412 -0.00197967 0 0 0.00328917 -0.0020465 -0.000119074 -0.0024855
internal_weight=0 7592 2898 6860 5446 2562 732 4995 2257 336 2121 1414 4589 4220 413 2111 1694 2109 1193 427 1596 305 319 96 66 469 406 1225 1248 903
internal_count=10490 7592 2898 6860 5446 2562 732 4995 2257 336 2121 1414 4589 4220 413 2111 1694 2109 1193 427 1596 305 319 96 66 469 406 1225 1248 903
is_linear=0
shrinkage=0.07


Tree=28
num_leaves=31
num_cat=0
split_feature=3 2 3 7 2 3 5 0 7 1 3 7 0 3 0 3 0 5 1 3 3 2 0 3 0 0 3 6 2 2
split_gain=4.69781 1.69059 1.54906 2.14557 0.961155 0.872659 0.802865 0.617409 0.545147 0.499292 0.454276 0.394532 0.353308 0.291632 0.28361 0.269683 0.23223 0.202987 0.197693 0.165685 0.152328 0.169501 0.165119 0.149179 0.129174 0.104643 0.102186 0.0996146 0.0935378 0.0746589
threshold=1.0275466522500001 2.4457173351000008 4.8105581144500009 16.190468552650003 1.0738136377500003 2.1588536276500006 0.20660372565000004 0.064270833400000019 4.1553522010500012 0.16675659560000003 8.7745569825500009 22.961711013550005 0.075991067450000019 0.51397030585000014 1.3269528900000003 3.0355648096000003 0.24149576590000002 1.2195555944000003 0.27358631045000009 1.6415265480500001 3.4017252943500007 0.66215708535000017 1.0034745774500002 0.084488366700000025 0.11326799495000002 0.21399727520000003 1.9861507061000003 3.6588717819000007 0.13505189775000001 1.3377588799500002
decision_type=2 2 2 2 2 2 2 2 2 2 2 2 2 2 2 2 2 2 2 2 2 2 2 2 2 2 2 2 2 2
left_child=6 2 3 5 14 8 23 27 12 24 11 -6 -2 -9 -4 -5 17 -15 -3 25 22 -22 -11 -1 -7 -14 -10 -8 -27 -25
right_child=1 18 4 15 10 9 7 13 26 20 -12 -13 19 16 -16 -17 -18 -19 -20 -21 21 -23 -24 29 -26 28 -28 -29 -30 -31
leaf_value=-0.016280213899670111 0.003053897719157653 0.0048383361054233605 0.0054310194769376817 -0.0088000921097617334 0.0010944108943821678 0.0047138521295413379 0.0010643481896258891 -0.0072768400248140108 -0.0033049918600285208 0.00012082252509901244 0.0042970489443650665 -0.0014355907775925182 0 -0.0032848800264356336 0.0020521095896547429 -0.0037042306188863157 -0.0053080506506474213 0 0.001885796396782356 0.00022462449168561568 0.0019348848267949389 0.00019364867894728035 -0.0015948325160722878 -0.0081389394368248432 0.0017011086255914491 0 -0.0008368727215914988 -0.0029067311001320685 -0.0021670783072208375 0
leaf_weight=31 135 434 374 98 1070 125 140 175 504 1121 167 405 219 221 312 362 237 141 282 510 434 1054 343 87 632 119 200 39 498 21
leaf_count=31 135 434 374 98 1070 125 140 175 504 1121 167 405 219 221 312 362 237 141 282 510 434 1054 343 87 632 119 200 39 498 21
internal_value=0 0.000497768 0.00021958 -0.000337154 0.00176919 1.03603e-05 -0.00435288 -0.00351015 -0.0010872 0.000675814 0.00079611 0.000352275 -0.000271734 -0.00436798 0.0039963 -0.00494204 -0.00340129 -0.00195957 0.00377323 -0.000657292 0.000237893 0.000748552 -0.000233323 -0.00962711 0.00229106 -0.00127903 -0.00270325 0 -0.00174575 -0.00706927
internal_weight=0 9398 8682 6354 2328 5894 1092 953 2185 3709 1642 1475 1481 774 686 460 599 362 716 1346 2952 1488 1464 139 757 836 704 179 617 108
internal_count=10490 9398 8682 6354 2328 5894 1092 953 2185 3709 1642 1475 1481 774 686 460 599 362 716 1346 2952 1488 1464 139 757 836 704 179 617 108
is_linear=0
shrinkage=0.07


Tree=29
num_leaves=31
num_cat=0
split_feature=3 7 3 7 1 0 3 0 3 7 3 2 7 3 3 2 2 1 0 0 2 5 0 3 3 2 3 2 2 2
split_gain=4.1131 1.44134 1.53982 1.09195 1.08877 0.784798 0.732112 0.799478 0.615158 0.524988 0.401791 0.313163 0.453228 0.352277 0.264829 0.234353 0.20264 0.202425 0.176028 0.170293 0.15374 0.135826 0.216027 0.124901 0.105648 0.105646 0.103297 0.146264 0.0982791 0.0979371
threshold=1.0716113605500002 41.560187634800009 3.1680969646500006 8.5241766585000018 0.25368968605000003 0.17452677600000002 0.14798580900000005 0.029079823900000003 7.7366961228500015 19.862584788200003 1.6976652601500002 1.9626218607500003 3.0621333430000006 0.65851395700000015 5.3843943022500005 0.12420103200000002 1.1638547130000003 0.026472546200000006 0.050057225000000004 1.42297891985 2.8438111231500005 0.62654641355000018 0.15275947370000004 5.1611670960500007 2.5852998200500004 1.0418079848500001 10.720002479050001 1.5480030900500001 0.27984613285000004 0.34004543170000007
decision_type=2 2 2 2 2 2 2 2 2 2 2 2 2 2 2 2 2 2 2 2 2 2 2 2 2 2 2 2 2 2
left_child=6 2 3 5 17 18 -1 -8 9 14 -7 12 13 21 19 -12 28 -4 -2 -6 24 -9 -23 -11 -5 -16 27 -10 -17 -15
right_child=1 -3 4 20 8 10 7 11 26 23 15 -13 -14 29 25 16 -18 -19 -20 -21 -22 22 -24 -25 -26 -27 -28 -29 -30 -31
leaf_value=-0.010604674885204684 0.0048038331828441933 -0.0052971693398841833 0.007222477554912783 -0.0056524302183423988 0.0010216057868077612 -0.0016433156962820043 0.0030585740864824571 -0.0073784611693121999 0.0047309146752291973 -0.0025309850777410735 0.0029683490945549701 0 -0.0078868479944135417 -0.0025325498914268493 0.0033293021049588746 0.00047363677237775522 0.0015063477836035116 0.0031977703192953024 0.0014475104436423197 -0.0002343149999542449 0 -0.00010420623353019972 -0.0054656394226095381 -0.0002303324776236037 -0.0021452236938668289 0.0013379291669471886 0.0070995908090443318 0.0013124444533576928 -0.00070772875905390558 0
leaf_weight=84 139 204 108 201 1429 944 77 138 145 218 129 60 164 294 301 385 312 714 436 716 22 97 113 423 162 616 58 258 1394 149
leaf_count=84 139 204 108 201 1429 944 77 138 145 218 129 60 164 294 301 385 312 714 436 716 22 97 113 423 162 616 58 258 1394 149
internal_value=0 0.00048612 0.000623309 -0.000363838 0.00145383 0 -0.00390721 -0.00332792 0.000971559 0.000647908 -0.000430663 -0.00388138 -0.00419743 -0.003344 0.00104128 5.34567e-05 -9.28949e-05 0.00381172 0.0023806 0.000569746 -0.0039135 -0.00513205 -0.0033225 -0.00112197 -0.00428007 0.00206792 0.00341946 0.00271611 -0.000412717 -0.00178137
internal_weight=0 9314 9110 4124 4986 3739 1176 1092 4164 3703 3164 1015 955 791 3062 2220 2091 822 575 2145 385 348 210 641 363 917 461 403 1779 443
internal_count=10490 9314 9110 4124 4986 3739 1176 1092 4164 3703 3164 1015 955 791 3062 2220 2091 822 575 2145 385 348 210 641 363 917 461 403 1779 443
is_linear=0
shrinkage=0.07


Tree=30
num_leaves=31
num_cat=0
split_feature=3 7 3 0 3 2 0 7 3 3 7 3 1 7 2 0 0 7 0 5 6 3 6 3 0 2 6 1 3 3
split_gain=3.60243 1.31709 1.12353 0.852442 0.830211 0.705333 0.70299 0.51577 0.449458 0.306403 0.300685 0.239456 0.236222 0.23254 0.23119 0.225088 0.217666 0.216527 0.19146 0.19378 0.22222 0.181852 0.207444 0.165129 0.155143 0.150882 0.149705 0.123619 0.119132 0.117398
threshold=1.3740034601500002 33.698606927300006 4.0840161251500007 0.28668657100000006 0.20746455585000004 0.65602353745000008 0.92781077530000011 11.929927296600003 2.1588536276500006 9.0117721252500029 13.440828190600003 8.127679639900002 0.38636548495000006 3.9144544061500004 2.2150275171000007 0.0093340579000000014 0.68935603785000021 20.168708678450002 0.029079823900000003 1.5277564127500003 2.8930881514500002 0.8718854854000001 2.4571414454500005 7.9866542037500006 0.27190108265000007 0.41515888990000005 1.8669749327 0.058183839100000002 3.7710491647500004 5.4226214407500004
decision_type=2 2 2 2 2 2 2 2 2 2 2 2 2 2 2 2 2 2 2 2 2 2 2 2 2 2 2 2 2 2
left_child=4 2 3 14 15 10 23 8 13 17 12 28 21 -5 27 -1 -10 29 -7 20 -20 22 25 -4 -21 -6 -23 -2 -3 -8
right_child=1 11 6 7 5 18 9 -9 16 -11 -12 -13 -14 -15 -16 -17 -18 -19 19 24 -22 26 -24 -25 -26 -27 -28 -29 -30 -31
leaf_value=0 0.0021415828832596164 -0.0080712838789388074 0.003079997916439297 0 -0.0037996081952289653 0.0035305589052950386 0.00061518122696818211 -0.0028305700898851719 0.0010730045446181154 0.0041157881170240515 -0.012060609478503468 0.00019880993434608999 6.1020184424705808e-05 -0.0022079943921582898 0.0046806356055491601 -0.010057986221440576 -0.00019054496987992083 -0.00018969447922388916 0 0.0018324741303301628 -0.0053978755871274143 0 -0.0076311910394048161 0.0074058978114044305 -0.002073376130972368 0 -0.002812408726428909 0.00010361139960020776 -0.0031442166618613886 0.0018722005119215491
leaf_weight=24 448 62 733 462 332 64 968 378 1241 172 24 33 70 607 153 102 1286 570 90 165 73 135 114 77 60 39 514 331 231 932
leaf_count=24 448 62 733 462 332 64 968 378 1241 172 24 33 70 607 153 102 1286 570 90 165 73 135 114 77 60 39 514 331 231 932
internal_value=0 0.000586088 0.000763312 6.76093e-05 -0.00284997 -0.00238064 0.00173177 -0.000364411 -8.57105e-05 0.00113936 -0.00325084 -0.00374286 -0.00301709 -0.00130475 0.00198483 -0.00855222 0.000402279 0.000903749 0 -0.00060155 -0.00252366 -0.00326882 -0.00446662 0.00357765 0.000479803 -0.00330554 -0.00226585 0.0013655 -0.00442571 0.00126862
internal_weight=0 8684 8358 4906 1806 1680 3452 3974 3596 2642 1228 326 1204 1069 932 126 2527 2470 452 388 163 1134 485 810 225 371 649 779 293 1900
internal_count=10490 8684 8358 4906 1806 1680 3452 3974 3596 2642 1228 326 1204 1069 932 126 2527 2470 452 388 163 1134 485 810 225 371 649 779 293 1900
is_linear=0
shrinkage=0.07


Tree=31
num_leaves=31
num_cat=0
split_feature=3 7 3 0 3 0 7 0 7 2 2 3 3 2 7 3 2 2 5 0 2 3 3 2 2 5 7 7 1 2
split_gain=3.18206 1.26615 1.01812 0.833173 0.844637 0.620097 0.610521 0.464511 0.450326 0.34238 0.296397 0.295356 0.260949 0.201304 0.181604 0.180684 0.170154 0.168426 0.16165 0.182816 0.157597 0.15595 0.154121 0.145931 0.113797 0.110667 0.0984219 0.0940707 0.0940675 0.0932688
threshold=1.8996169556000002 41.560187634800009 0.46537126955000008 0.37967683435000005 4.7444979616500005 0.055403619650000006 15.500877678500002 1.8386083198500003 8.5241766585000018 2.5597957511500007 2.3927815766000005 3.1129046264500002 0.93114086130000018 1.9119016754500002 4.2050421074000006 10.720002479050001 0.90386021295000007 0.16503071390000004 0.0057056212500000009 0.033590416800000009 0.27417189920000007 2.9911818680000004 8.7745569825500009 0.059259130250000007 0.53102645775000012 3.5468413712000006 6.1293047418500004 22.480844818900003 0.044279494950000005 0.81504734900000009
decision_type=2 2 2 2 2 2 2 2 2 2 2 2 2 2 2 2 2 2 2 2 2 2 2 2 2 2 2 2 2 2
left_child=2 3 9 11 6 -4 13 22 10 18 12 28 23 20 16 27 17 -14 -1 -20 -5 26 29 -7 -23 -12 -22 -9 -2 -6
right_child=1 -3 5 4 7 8 -8 15 -10 -11 25 -13 14 -15 -16 -17 -18 -19 19 -21 21 24 -24 -25 -26 -27 -28 -29 -30 -31
leaf_value=-0.013711120208932295 0.0028565196173828585 -0.0046371953639904595 0.0023299001207882008 0.0015421757517680009 0.0035615674842723226 0 -0.0028841297148618633 0.00086496948677331159 -0.0058787428652901921 0 0.0043339910991758539 0.0044395094053359474 4.6206967118240971e-06 0.0021792195249573151 -0.002737643760915667 0.0054687114059925081 0.0012540407618584332 -0.0016285017682928673 -0.00057604533173919977 -0.006489699197042717 -0.00013824587073364215 0.0015668222765541852 0.0054256900737552636 -0.003535382785060933 0 0 -0.0016132497230771548 -0.00031278527364324906 0.00076577405563566046 0.0016681453178264232
leaf_weight=27 259 204 180 315 281 40 343 774 136 33 52 380 364 238 333 38 152 818 60 216 715 286 117 459 1475 28 429 471 404 863
leaf_count=27 259 204 180 315 281 40 343 774 136 33 52 380 364 238 333 38 152 818 60 216 715 286 117 459 1475 28 429 471 404 863
internal_value=0 0.000747384 -0.00197913 0.000905539 0.000590055 -0.00146689 -5.29577e-05 0.0015783 -0.00178319 -0.00567663 -0.00150402 0.00275765 -0.00167797 0.000207624 -0.00118863 0.00056896 -0.000749489 -0.00106636 -0.00642422 -0.00545775 4.01584e-05 -9.86146e-05 0.00254973 -0.00317238 0.000286459 0.00233044 -0.000752561 0.000363184 0.0016881 0.00219441
internal_weight=0 7592 2898 7388 6345 2562 3801 2544 2382 336 2246 1043 2166 3458 1667 1283 1334 1182 303 276 3220 2905 1261 499 1761 80 1144 1245 663 1144
internal_count=10490 7592 2898 7388 6345 2562 3801 2544 2382 336 2246 1043 2166 3458 1667 1283 1334 1182 303 276 3220 2905 1261 499 1761 80 1144 1245 663 1144
is_linear=0
shrinkage=0.07


Tree=32
num_leaves=31
num_cat=0
split_feature=3 2 3 7 3 5 7 2 0 2 3 0 3 2 0 5 2 0 3 2 0 3 3 3 0 7 2 1 7 7
split_gain=2.80553 1.13567 1.02594 1.24044 0.754774 0.557443 0.480435 0.43656 0.408812 0.370448 0.297813 0.289319 0.287458 0.188947 0.171225 0.165104 0.163869 0.156684 0.174284 0.160388 0.134358 0.109894 0.105831 0.104299 0.100522 0.0872351 0.0857294 0.0734375 0.0729779 0.0637973
threshold=1.0716113605500002 2.4457173351000008 6.7884365529500004 21.004957902750004 2.5650909891500002 0.023347321200000003 7.4859715376000011 0.40942257690000006 0.043626162350000004 1.1936787856500002 3.3061641712000003 0.075991067450000019 0.46537126955000008 0.11739625780000001 0.27190108265000007 1.2195555944000003 0.89567891325000015 0.27696613405000009 4.0206582996000009 0.78259921505000007 0.4986041676500001 0.14798580900000005 1.6628779564000002 3.1129046264500002 3.4885281002000004 49.243802086250007 0.059259130250000007 0.2769559551500001 11.726296442000002 10.644859869600003
decision_type=2 2 2 2 2 2 2 2 2 2 2 2 2 2 2 2 2 2 2 2 2 2 2 2 2 2 2 2 2 2
left_child=5 2 3 4 6 -1 11 23 21 -4 -5 -2 -10 -13 15 26 22 -9 29 28 -3 -7 -15 -6 -11 -12 -14 -16 -20 -19
right_child=1 20 9 10 7 8 -8 17 12 24 25 13 14 16 27 -17 -18 18 19 -21 -22 -23 -24 -25 -26 -27 -28 -29 -30 -31
leaf_value=-0.010134624175374366 0.0022994212186895316 0.0044263471614323239 0.0052955182516045462 -0.0071054927230326716 0.0013502824786491693 -0.0028262286044826563 -0.0037646723430688413 0.0025991374332115613 -0.0059295220654393931 0.0020689451303356403 -0.0015758437293008397 0.0012010252084848729 0 -0.0018051461550648421 -0.0047125441020286216 0 0.0003595864998629193 4.485265230781796e-05 0.0023495427010750492 0.00044397599922083714 0.0019285307249131925 0.0015030732072844376 -0.00057426052765188924 0.0040758881238146171 0 -0.0047368850603956613 -0.0030948203464636124 0 0 -0.0010789574354836491
leaf_weight=62 175 305 208 92 250 33 231 181 205 405 451 231 40 721 211 214 398 1354 405 1577 405 123 1137 232 147 87 265 23 40 282
leaf_count=62 175 305 208 92 250 33 231 181 205 405 451 231 40 721 211 214 398 1354 405 1577 405 123 1137 232 147 87 265 23 40 282
internal_value=0 0.000403375 0.000172704 -5.6503e-05 0.000194526 -0.00322506 -0.000667519 0.000787883 -0.00277767 0.00263047 -0.0030421 -0.000372462 -0.00332562 -0.000588618 -0.00252376 -0.00158817 -0.000802894 0.000516089 0.000393883 0.000833016 0.00310013 0.000138541 -0.00108958 0.00280742 0.00149943 -0.00221713 -0.00263524 -0.0042997 0.0020544 -0.000106073
internal_weight=0 9314 8604 7844 7214 1176 2893 4321 1114 760 630 2662 958 2487 753 519 2256 3839 3658 2022 710 156 1858 482 552 538 305 234 445 1636
internal_count=10490 9314 8604 7844 7214 1176 2893 4321 1114 760 630 2662 958 2487 753 519 2256 3839 3658 2022 710 156 1858 482 552 538 305 234 445 1636
is_linear=0
shrinkage=0.07


Tree=33
num_leaves=31
num_cat=0
split_feature=3 7 2 3 3 0 7 3 2 7 3 0 4 6 2 2 7 3 3 3 2 7 2 2 2 7 2 6 2 5
split_gain=2.45391 0.924543 0.815225 0.7379 0.661238 0.582462 0.491416 0.426119 0.443256 0.338544 0.328209 0.385035 0.26967 0.289094 0.25182 0.197688 0.190841 0.163075 0.153371 0.138256 0.129367 0.116043 0.115726 0.107827 0.0949962 0.0948681 0.0933987 0.0785282 0.0783308 0.0703517
threshold=1.4741209718500004 44.720344592750003 2.2989508037500004 7.2706961530500012 0.14798580900000005 0.029079823900000003 21.004957902750004 2.9578305690500004 0.49357402755000007 3.2608527009500006 0.71923809765000013 0.21399727520000003 1.9800766292500003 2.2732631798500003 1.1936787856500002 0.97774630890000014 13.440828190600003 2.3744366892500004 5.3843943022500005 4.1690542859500006 1.9626218607500003 12.481969656500002 0.13505189775000001 3.5162216415000005 1.0839508139500003 5.4140221576000007 0.10234210710000001 5.3536319001500008 0.038348350750000003 1.2490650700500001
decision_type=2 2 2 2 2 2 2 2 2 2 2 2 2 2 2 2 2 2 2 2 2 2 2 2 2 2 2 2 2 2
left_child=4 2 3 6 -1 -6 7 9 -9 -2 12 29 13 22 -5 17 26 25 21 -8 -15 -10 28 -4 -20 -11 -13 -17 -7 -12
right_child=1 -3 23 14 5 10 19 8 18 15 11 16 -14 20 -16 27 -18 -19 24 -21 -22 -23 -24 -25 -26 -27 -28 -29 -30 -31
leaf_value=-0.0085227718631116067 0.0013679015564121966 -0.004650724393732218 0.0020056859504566302 0.0057311731682527798 0.0031107567071665043 0 -0.0037989764670402072 0.0030588954199308556 0.00052274802041806596 -0.0010083795262660177 -0.00096259394874428656 0 0.0018397566349118613 -0.0079146033344405821 0.0017210269772603864 0.0015222145166375646 -0.0096492255900217146 -0.00010755746072736309 0.0024601024545677034 -0.00087516975289627231 0 -0.00062518702772235168 -0.00084259432189775498 0.00439058585602613 0.00066601958954483277 -0.0028393360390434872 -0.002351644332728314 -0.00011788259271270363 -0.0050061506756395105 0.00077065866982234767
leaf_weight=84 489 163 522 143 97 28 147 419 1933 783 190 70 22 132 359 235 23 785 316 400 21 509 169 234 569 272 771 196 125 284
leaf_count=84 489 163 522 143 97 28 147 419 1933 783 190 70 22 132 359 235 23 785 316 400 21 509 169 234 569 272 771 196 125 284
internal_value=0 0.000519554 0.000629379 0.000399259 -0.00219766 -0.00188643 0.000204026 0.000382341 0.000873008 -0.000258251 -0.00218873 -0.00152846 -0.00382542 -0.00423518 0.0030028 -0.000639224 -0.00240863 -0.000970812 0.000576678 -0.00178888 -0.007064 0.000254812 -0.00267366 0.00283646 0.00138571 -0.00154679 -0.00212738 0.000613957 -0.00423869 0
